tree
version=v4
num_class=1
num_tree_per_iteration=1
label_index=0
max_feature_idx=28
objective=lambdarank
feature_names=title_tier product_ratio core_skill_score strong_skill_score assessment_bonus has_irrelevant years_of_experience ml_production_months recency_flag is_research_only langchain_only_flag ownership_score scale_score decision_depth_score response_rate interview_completion offer_acceptance open_to_work github_score profile_completeness notice_score days_since_active recency_score location_score consulting_mult research_mult llm_tourist_mult ic_mult eval_score
feature_infos=[0.10000000000000001:1] [0:1] [0:4.9740000000000002] [0:6.644000000000001] [0:0.93899999999999995] [0:1] [1:16.899999999999999] [0:222] [0:1] none [0:1] [0:1] [0:1] [0:0.80000000000000004] [0.02:0.94999999999999996] [0.29999999999999999:1] [0.14999999999999999:0.93000000000000005] [0:1] [0:0.96900000000000008] [0.25:0.99900000000000011] [0.25:1] [5:245] [0:0.97222222222222221] [0.10000000000000001:1] [0:1] [0.29999999999999999:1] none [0.20000000000000001:1] [0:0.94999999999999996]
tree_sizes=6946 6837 6882 6874 6879 6954 6961 6880 6890 6947 6895 6867 6839 6862 6888 6859 6922 6855 6862 6870 6894 6863 6856 6881 6863 6881 6878 6891 6878 6938 6866 6851 6852 6864 6888 6862 6874 6867 6907 6899 6928 6866 6863 6880 6861 6914 6898 6897 6919 6903 6890 6900 6890 6908 6886 6903 6898 6939 6912 6918 6937 6940 6954 6946 6936 6909 6938 6962 6957 6945 6991 6931 6953 6920 6926 6935 6928 6963 6951 6953 6930 6967 7000 6982 6976 6924 6935 6972 7000 6994 6984 6959 7026 6990 7000 6999 6976 6990 7001 7006 6982 6999 7002 6962 6982 6997 7001 7047 7065 7058 6982 7002 7028 7049 6990 7029 7024 7054 7069 7054 7026 7035 7055 7051 7062 7043 7047 7054 7030 7041 7058 7053 7058 7074 7082 7050 7031 7025 7078 7068 7075 7066 7072 7051 7050 7059 7130 7055 7076 7096 7041 7075 7069 7096 7059 7085 7121 7104 7057 7079 7131 7085 7094 7113 7097 7082 7086 7134 7087 7186 7097 7121 7120 7113 7154 7157 7181 7120 7150 7142 7075 7135 7135 7152 7135 7164 7182 7130 7155 7131 7159 7115 7143 7153 7163 7152 7190 7167 7208 7155 7210 7158 7193 7236 7218 7201 7200 7241 7162 7229 7166 7230 7237 7228 7192 7241 7259 7219 7260 7187 7235 7203 7245 7228 7277 7249 7226 7240 7295 7260 7270 7262 7277 7261 7244 7234 7285 7233 7225 7226 7298 7287 7290 7295 7266 7292 7305 7278 7327 7243 7242 7285 7336 7289 7320 7321 7329 7281 7291 7327 7299 7304 7294 7294 7291 7329 7301 7297 7284 7298 7315 7309 7284 7302 7282 7303 7289 7357 7304 7335 7305 7354 7322 7321 7309 7264 7359 7324 7292 7335 7314 7321 7330 7319 7343 7345 7339 7347 7289 7348

Tree=0
num_leaves=63
num_cat=0
split_feature=0 24 3 4 0 21 14 11 15 17 17 14 14 12 21 16 17 14 6 27 20 14 21 12 16 16 17 21 15 14 15 2 3 15 17 15 21 12 7 7 21 2 15 14 15 15 15 6 8 27 2 15 14 17 16 28 14 18 4 15 15 13
split_gain=909.858 41.7579 1.13947 0.740476 0.448147 0.184726 0.0902632 0.14434 0.0828663 0.0757443 0.0754391 0.0718188 0.0699484 0.0608702 0.0477982 0.128148 0.0421439 0.05226 0.0347229 0.181942 0.254131 0.0235808 0.0326375 0.0232596 0.0218071 0.021359 0.0205022 0.0204913 0.019598 0.0180163 0.0186866 0.0170607 0.0324136 0.0142648 0.0139837 0.0153029 0.0182747 0.0114487 0.0113822 0.0107988 0.0118855 0.010699 0.0105862 0.00974191 0.0077949 0.00742736 0.00660953 0.00654806 0.00588032 0.00589726 0.00558353 0.00551937 0.00544423 0.00527457 0.00681042 0.00584242 0.00926317 0.00565991 0.00494729 0.00482067 0.00462229 0.00453279
threshold=0.27500000000000008 1.0000000180025095e-35 3.0090000000000008 0.73416666666666675 0.60000000000000009 97.500000000000014 0.35500000000000004 0.22500000000000003 0.79500000000000015 1.0000000180025095e-35 1.0000000180025095e-35 0.46500000000000002 0.26500000000000007 0.75000000000000011 143.50000000000003 0.25500000000000006 1.0000000180025095e-35 0.49500000000000005 2.6500000000000008 0.80000000000000016 0.55000000000000016 0.6150000000000001 181.50000000000003 0.75000000000000011 0.33500000000000008 0.33500000000000008 1.0000000180025095e-35 70.500000000000014 0.65500000000000014 0.59500000000000008 0.55500000000000016 1.5645000000000004 1.2501666666666666 0.60500000000000009 1.0000000180025095e-35 0.68500000000000016 166.50000000000003 0.75000000000000011 38.500000000000007 7.5000000000000009 83.500000000000014 0.65166666666666684 0.77500000000000013 0.24500000000000002 0.66500000000000015 0.74500000000000011 0.57500000000000007 9.7500000000000018 1.0000000180025095e-35 0.80000000000000016 0.13683333333333336 0.58500000000000008 0.59500000000000008 1.0000000180025095e-35 0.35500000000000004 1.0000000180025095e-35 0.24500000000000002 0.073500000000000024 0.8005000000000001 0.8650000000000001 0.43500000000000005 1.0000000180025095e-35
decision_type=2 2 2 2 2 2 2 2 2 2 2 2 2 2 2 2 2 2 2 2 2 2 2 2 2 2 2 2 2 2 2 2 2 2 2 2 2 2 2 2 2 2 2 2 2 2 2 2 2 2 2 2 2 2 2 2 2 2 2 2 2 2
left_child=-1 -2 4 8 6 12 7 10 -4 18 -3 23 37 21 53 -16 17 33 19 58 -21 22 60 41 -19 -13 -23 51 -15 -20 -31 -18 -33 -14 35 36 -17 42 -30 40 44 47 -6 -38 -26 -29 52 -11 -35 -50 59 -28 -27 54 55 56 -9 -55 -7 -32 -8 -37
right_child=1 2 3 -5 5 9 13 14 -10 11 -12 25 16 28 15 34 31 24 29 20 -22 26 -24 -25 39 46 27 45 38 30 50 32 -34 48 -36 61 43 -39 -40 -41 -42 -43 -44 -45 -46 -47 -48 -49 49 -51 -52 -53 -54 57 -56 -57 -58 -59 -60 -61 -62 -63
leaf_value=-0.10000000000000001 -0.10000000000000001 0.041663470372316817 0.093031066670443419 -0.018311063732619853 0.089583039768538653 0.090820701336566043 0.084070730634181509 0.066336175828741475 0.053482379478635739 0.088194269521260041 0.08572723387277574 0.091655274458608424 0.089670472326180389 0.092112447842169112 0.041808490266388804 0.079050380773831724 0.09943736853753922 0.091715170507056243 0.089280998631551922 0.090075677585133726 -0.012662078219321152 0.090006499769715836 0.067825766751501607 0.09974083415560063 0.092616891540967181 0.090827689086590863 0.092537504559788097 0.088963974859034858 0.09286621154830299 0.088174079315233161 0.091924171710076594 0.099140554690684488 0.080254797297907965 0.091524888253462888 0.088854989912798915 0.079378120237806438 0.037397951144882105 0.098853364475742778 0.099413787336706388 0.099052944867442011 0.089698161110296326 0.096890047146867192 0.094935732260471473 0.069201299019354914 0.099412186419568074 0.094547765625906305 0.099320038876647296 0.096534792014690965 0.097255543298488623 0.092055410055910891 0.098293757060705908 0.098654785621522925 0.097887317502465501 0.088172972282788725 0.088184775522236275 0.087777767748397031 0.084330433312992434 0.091739167952842426 0.083448513141881911 0.098797027663707293 0.089282710305627566 0.089760392685221527
leaf_weight=119.12049971370288 2.8482332903331544 0.26767412829212567 0.28409645592910138 0.35924744103976991 3.2582300385111003 1.2927225079620264 0.44002267986070798 0.11155047127976825 0.24813556502340361 4.2529577764798896 0.15245952550321817 1.2434684219770114 2.5462206019437899 2.2670227367198086 0.19736060034483749 0.22578180034179218 30.725611101137478 1.3125748322345341 6.9855869227903877 0.13131324329879124 0.11113355471752584 6.1850401069386844 0.18260561267379749 0.6081326319836079 0.59454642911441613 0.43730472947936483 0.45076904864981804 1.5352158837486061 0.85161763406358693 1.1169572123326363 1.0068561118096115 0.68545451463432872 0.339832737139659 1.1628063840325924 0.8588819052092731 0.17476891668047756 0.048958846018649638 0.53188021248206485 3.0088111697696149 12.485655800323 0.65393125778064121 0.43237281288020302 1.2892046167980877 0.047382893040776253 1.4543404153082518 0.97299635387025762 6.6427290071733296 0.24910752987489093 1.9234321734402331 0.76088386774063099 1.2612149333581326 2.0261280937120318 0.72726970491930842 2.2784325311658904 6.9191736521897838 0.28575555724091828 0.19930580793879926 2.1744008746463805 0.2761898636817931 0.34173105214722443 12.795816195750374 0.26383051462471485
leaf_count=67427 1748 38 25 27 382 146 72 35 23 385 23 60 213 111 13 44 1375 97 770 31 16 867 38 48 85 41 68 211 30 95 140 41 34 179 96 47 24 54 105 623 26 58 188 17 88 130 320 17 189 49 103 157 92 306 633 33 22 216 1 42 1384 30
internal_value=0.000806593 0.0894254 0.0934926 0.0371545 0.0938738 0.095971 0.0898194 0.0865237 0.0745928 0.0925486 0.0576535 0.0949967 0.0975249 0.0913437 0.0874036 0.0798473 0.0980466 0.0964113 0.0896961 0.0832936 0.0429824 0.0902325 0.0888198 0.0905144 0.0978983 0.0977415 0.0919296 0.0943156 0.0958024 0.0907787 0.093586 0.0992256 0.0928808 0.0925735 0.0844826 0.0795459 0.071271 0.0919124 0.0979694 0.0984326 0.0955672 0.0893773 0.0911005 0.0530395 0.0974403 0.0911301 0.0987109 0.0886558 0.094495 0.0957815 0.0959023 0.0975415 0.0952364 0.0885507 0.0877428 0.0826171 0.0778732 0.0899144 0.0895229 0.0936657 0.0891094 0.0856234
internal_weight=254.624 135.503 132.655 0.891479 131.763 86.8417 44.9218 14.2057 0.532232 27.117 0.420134 14.5933 59.7246 30.716 13.7856 1.81697 54.6453 22.8944 12.5237 1.81136 0.242447 24.5886 13.4184 5.54257 16.501 9.05077 11.1701 4.98511 6.12745 10.7123 3.72676 31.7509 1.02529 6.39334 1.6196 0.760723 0.322124 5.07931 3.86043 15.1885 2.70282 4.93444 4.54743 0.0963417 2.04889 2.50821 7.8073 4.50207 3.84712 2.68432 2.6098 2.4769 1.16457 11.9686 7.51579 0.596612 0.310856 4.45283 1.56891 1.34859 13.2358 0.438599
internal_count=79988 12561 10813 75 10738 5988 4750 1577 48 2365 61 1021 3623 3173 1516 271 2999 1549 1344 194 47 2927 1494 508 919 513 1433 566 246 1150 380 1450 75 630 258 162 85 624 135 822 199 460 570 41 173 341 453 402 417 238 285 225 133 1245 723 90 57 522 147 182 1456 77
is_linear=0
shrinkage=0.05


Tree=1
num_leaves=63
num_cat=0
split_feature=0 17 14 12 21 21 14 14 12 15 16 14 15 0 15 15 14 12 12 22 21 15 14 14 12 22 2 15 21 2 3 6 2 25 8 15 17 22 14 15 16 16 15 1 21 15 2 14 14 21 17 0 15 16 11 0 15 2 1 15 2 15
split_gain=1100 137.752 66.3956 38.734 33.7157 19.1005 13.1437 11.0412 20.3519 9.96358 6.61533 5.69734 4.99245 4.93785 4.52426 3.23311 3.26495 3.10077 3.06278 1.70261 1.65295 1.5988 1.76696 1.3625 2.11922 11.562 1.45902 1.68147 1.26084 1.17247 1.65241 1.07917 1.05781 1.0002 1.49454 0.942604 0.92847 0.921866 0.660662 0.628799 0.521171 0.512642 0.488072 0.483723 0.481188 1.06926 1.24247 0.478967 0.465121 1.28507 2.89059 5.57957 1.78649 1.38463 0.55381 0.50653 0.449001 0.746394 0.417096 0.40917 0.400223 0.396733
threshold=0.60000000000000009 1.0000000180025095e-35 0.49500000000000005 0.75000000000000011 97.500000000000014 134.50000000000003 0.47500000000000003 0.23500000000000001 0.75000000000000011 0.65500000000000014 0.33500000000000008 0.35500000000000004 0.67500000000000016 0.27500000000000008 0.59500000000000008 0.48500000000000004 0.38500000000000006 0.75000000000000011 0.75000000000000011 0.63611111111111118 73.500000000000014 0.88500000000000012 0.68500000000000016 0.44500000000000006 0.75000000000000011 0.45833333333333343 0.11516666666666668 0.75500000000000012 35.500000000000007 1.8625 1.4430000000000003 6.5500000000000007 0.91033333333333333 0.65000000000000013 1.0000000180025095e-35 0.59500000000000008 1.0000000180025095e-35 0.45833333333333343 0.6150000000000001 0.60500000000000009 0.50500000000000012 0.59500000000000008 0.83500000000000008 0.61255630630630642 98.500000000000014 0.57500000000000007 0.089333333333333334 0.62500000000000011 0.6150000000000001 63.500000000000007 1.0000000180025095e-35 0.27500000000000008 0.58500000000000008 0.36500000000000005 0.82575757575757591 0.27500000000000008 0.78500000000000014 0.29683333333333339 0.98265895953757243 0.50500000000000012 0.69850000000000012 0.50500000000000012
decision_type=2 2 2 2 2 2 2 2 2 2 2 2 2 2 2 2 2 2 2 2 2 2 2 2 2 2 2 2 2 2 2 2 2 2 2 2 2 2 2 2 2 2 2 2 2 2 2 2 2 2 2 2 2 2 2 2 2 2 2 2 2 2
left_child=3 2 17 48 10 7 -7 8 -3 -5 -4 -11 18 -13 61 16 -9 -2 19 43 -18 32 -23 24 25 60 27 28 -27 44 -31 -22 56 34 35 -21 41 -19 42 -39 -30 -15 -16 -12 -25 46 -46 -14 55 50 -50 -52 -53 -54 -55 -1 -6 -58 -10 -35 -17 -8
right_child=1 5 4 9 21 6 14 15 58 11 12 13 47 36 38 23 20 37 -20 33 31 22 -24 29 -26 26 -28 -29 40 30 -32 -33 -34 59 -36 -37 -38 39 -40 -41 -42 -43 -44 -45 45 -47 -48 -49 49 -51 51 52 53 54 -56 -57 57 -59 -60 -61 -62 -63
leaf_value=-0.090962374370600049 -0.094409511212842287 -0.087363670497968143 -0.08587595228540057 -0.089278457799092603 -0.091878729401383502 -0.08967600430071028 -0.095563946981593303 0.0073730472602062877 0.091782648419218543 -0.089555277168458514 -0.058340475809805385 -0.090962439444915305 0.065645110126631448 0.033099562842759112 0.020497728639717848 -0.089913780351222744 0.082327357262511183 -0.082783778818400433 0.083545110151296148 -0.090452595715585379 -0.003445793972232341 -0.081876572434641123 0.046715329741867304 0.090291348675593588 0.090274024923776564 0.075126069454358194 0.086834961667756255 0.082188194537097137 0.020085110169139483 0.080874823955037783 -0.013116149161083959 0.06375993227277868 0.021605777111164834 0.022787247975820463 0.041675170371071144 0.016769797827722605 0.088509719809491502 -0.06446991148776382 0.076061640178995096 0.030583466109374319 0.055809819258670124 0.078831024190901544 0.069670803132082723 -0.0063894913377587365 -0.048732127637939888 0.084187319638460989 0.071388408898040087 0.083573308655043588 -0.092606075043075053 -0.092246144925885912 -0.090962389875666655 -0.076495795693500901 -0.079763660893365937 -0.008673890511656495 0.050531662414791928 -0.098158340923446941 -0.078980489566979117 0.015372314263826087 0.065217856908197286 0.062716946988371172 -0.012990521882780695 -0.027717181147043669
leaf_weight=115.48297222563997 16.498270363299529 2.6801240993663651 0.78906195750460284 1.8177438577986302 4.2085256206628392 2.4897198067628761 0.41884703980758775 2.3414030051790169 3.0090491346199997 0.73961048992350686 0.67097008740529629 0.51813240803312499 5.6679155147212468 1.798547408427112 1.2474714911077174 1.0488085135002609 8.8473479070235026 0.37643402209505328 2.1303720732103102 0.50136436801403728 1.0170398827613092 0.49906694632954873 0.57484416308579966 132.33714137261268 27.945431912448839 2.7817556930240226 18.285238066804595 7.6316861398518085 2.9724180109333247 1.5745720388367765 0.66514531197026361 1.447458385111531 0.2467399509041569 0.95645414525643024 1.1022225291817449 0.34672695444896817 3.1561367766698822 0.22482992388540879 3.411754553031642 0.76937918455951149 1.5549626208376137 0.92951558716595162 0.84742550342343737 1.3488075908971948 0.33418681987677601 11.206046742387114 0.60499713610624894 10.870003651376463 9.8718972795759345 36.632840094549465 3.6881539376918218 0.59112271692720275 0.29956865962594781 0.53218656290846422 1.5320267643328407 31.024862423597369 0.89243613509461261 0.27394384157378227 2.9033342039329 1.9488545958010943 0.20159560721367586 0.44373723049648106
leaf_count=50447 1822 309 109 367 483 259 44 43 20 149 60 225 190 62 47 125 79 49 61 67 38 51 48 1046 149 33 189 76 58 17 53 29 27 37 42 20 63 28 104 89 26 20 21 64 40 250 27 335 3304 13025 1605 67 27 39 104 3543 103 27 21 69 21 36
internal_value=0.00116425 0.063956 -0.0107659 -0.0864686 0.0312389 0.079786 0.00773464 0.0825446 0.0269284 0.0152352 0.0567123 0.0418357 0.061117 0.0570142 0.0458122 0.0846895 0.0611157 -0.0884061 0.0311623 0.0149313 0.0722397 -0.0689449 -0.0130438 0.0862284 0.0800412 0.0717468 0.0773639 0.0657728 0.0486331 0.0888607 0.0529616 0.0360257 -0.0796238 0.0309788 0.0032816 -0.0466166 0.0700443 -0.0161436 0.0624908 0.00908815 0.032355 0.0486814 0.0403892 -0.0236476 0.0894172 0.0798924 0.0286463 0.0774289 -0.0910327 -0.0870259 -0.0754464 -0.0499464 0.00124763 0.0206893 0.0352675 -0.0924862 -0.0842709 -0.0568202 0.0787377 0.0495717 -0.0775119 -0.0606617
internal_weight=499.761 291.146 50.8972 208.615 33.0283 240.249 8.85896 231.39 8.59251 8.95969 26.3328 7.14194 25.5437 6.40233 6.36924 222.797 13.6532 17.8689 9.00577 6.8754 11.3118 6.69556 1.07391 209.144 62.4219 34.4765 33.2261 14.9408 7.30914 146.722 2.23972 2.4645 5.62165 4.85562 1.95031 0.848091 5.8842 1.37064 5.50665 0.994209 4.52738 2.72806 2.0949 2.01978 144.482 12.1452 0.939184 16.5379 199.656 53.1478 16.515 6.64306 2.9549 2.36378 2.06421 146.508 5.37491 1.16638 5.91238 2.90531 1.2504 0.862584
internal_count=79988 6941 3781 73047 1793 3160 511 2649 350 886 1054 519 945 370 252 2299 189 1988 420 359 146 739 99 2110 677 528 382 193 117 1433 70 67 640 235 129 87 145 166 172 117 84 82 68 124 1363 317 67 525 72161 18171 5146 1842 237 170 143 53990 613 130 41 106 146 80
is_linear=0
shrinkage=0.05


Tree=2
num_leaves=63
num_cat=0
split_feature=0 12 1 21 0 14 14 12 14 21 0 14 22 2 11 14 14 1 11 2 21 3 2 22 11 2 2 6 14 21 14 13 21 14 11 13 3 22 25 18 28 0 1 14 3 22 1 6 3 19 3 18 28 21 2 2 22 21 23 28 28 19
split_gain=1062.84 37.651 31.3542 10.9717 9.22116 7.49042 3.56054 7.79084 10.4104 4.39564 1.98256 5.25626 6.34142 1.92717 1.45334 1.09624 1.12973 1.03842 0.838776 0.814716 0.705045 0.668355 0.9431 0.654817 0.540519 0.531694 0.526336 0.578924 0.522902 0.467854 0.44157 0.600669 0.48437 0.435133 0.607198 0.387936 0.339174 0.433729 0.32785 0.323314 0.322206 0.326519 0.317235 0.311522 0.291489 0.260381 0.251109 0.322201 0.288386 0.257342 0.246909 0.226965 0.222032 0.216729 0.212356 0.224324 0.218251 0.332567 0.477692 0.196625 0.188496 0.187906
threshold=0.60000000000000009 0.75000000000000011 1.0000000180025095e-35 134.50000000000003 0.27500000000000008 0.48500000000000004 0.45500000000000007 0.75000000000000011 0.23500000000000001 102.50000000000001 0.27500000000000008 0.6150000000000001 0.63055555555555565 0.089333333333333334 0.82575757575757591 0.36500000000000005 0.35500000000000004 1.0000000180025095e-35 0.73863636363636376 0.72983333333333344 96.500000000000014 3.0090000000000008 1.361666666666667 0.54722222222222239 0.95119047619047625 0.19616666666666668 0.082500000000000004 4.4500000000000011 0.36500000000000005 52.500000000000007 0.75500000000000012 1.0000000180025095e-35 157.50000000000003 0.62500000000000011 0.29166666666666669 1.0000000180025095e-35 0.23116666666666669 0.80277777777777792 0.65000000000000013 0.041500000000000002 0.40000000000000008 0.87500000000000011 0.31118469462840331 0.74500000000000011 0.051000000000000011 0.68055555555555569 0.72085472666868022 5.2500000000000009 0.92366666666666675 0.54350000000000009 0.28250000000000008 0.13850000000000004 1.0000000180025095e-35 55.500000000000007 0.17550000000000002 1.4023333333333334 0.6083333333333335 86.500000000000014 0.72500000000000009 1.0000000180025095e-35 1.0000000180025095e-35 0.36450000000000005
decision_type=2 2 2 2 2 2 2 2 2 2 2 2 2 2 2 2 2 2 2 2 2 2 2 2 2 2 2 2 2 2 2 2 2 2 2 2 2 2 2 2 2 2 2 2 2 2 2 2 2 2 2 2 2 2 2 2 2 2 2 2 2 2
left_child=1 10 -2 6 -3 -5 7 8 -4 13 -1 -12 -13 23 45 16 -6 -16 43 -11 21 33 -23 42 -24 29 27 44 46 35 31 32 -20 34 -8 39 37 -30 -9 61 41 -35 -10 59 -22 -14 47 -25 49 50 -48 -44 -46 -15 56 -56 57 58 -36 -7 -37 -19
right_child=2 4 3 5 15 18 20 38 9 19 11 12 14 53 17 -17 -18 25 30 -21 26 22 24 28 -26 -27 -28 -29 36 -31 -32 -33 -34 40 54 60 -38 -39 -40 -41 -42 -43 51 -45 52 -47 48 -49 -50 -51 -52 -53 -54 -55 55 -57 -58 -59 -60 -61 -62 -63
leaf_value=-0.084307946209585594 -0.08736298364456746 -0.084343675035817439 -0.089376637877855269 -0.087966166117799949 -0.086282941303673588 -0.075200623177293327 0.046171335666643172 0.061199747114876461 0.051530845424026528 -0.083272387630209763 -0.088682826549596513 -0.088350537830906684 -0.0044047465762305747 0.070740939472442629 -0.08619377366721942 0.064136571181216975 0.056018489351115211 0.07181166728661327 0.034503412896324241 0.025607697216768005 0.052639709092492076 0.07326191936905771 0.05104527382967803 0.058347453683271003 -0.044196265187089127 0.059492228559759414 0.075314936720423886 0.065616643503997457 0.0059115530794917152 -0.054194951638119396 0.06682542786974896 0.05208226630698766 -0.036850316076350732 0.078790404510404852 0.022099714313318062 0.023881111184685472 0.066281626960045054 0.057575983812340671 0.079944117572206416 -0.057351953050858676 0.061094885683186585 0.085067056200266 -0.075582072062963163 0.03359891057990224 -0.0023187226630096355 -0.086828557876809931 -0.092818069811029039 0.01045518200717009 0.052809968836640568 0.0074096018669669132 0.0097522012330494515 -0.0068071819134970782 0.050353242569088852 0.057220916735563038 0.079525940302729414 0.060122326712959473 0.074979246293106469 0.072693508199062354 0.067625190614507238 -0.0097001344013062339 0.071461479487142224 0.00057577546690543548
leaf_weight=198.54723600368015 3.1207176297903052 1.4121986504178483 1.4684960036283907 1.5472158489210404 0.25731598552374624 0.18470942642306898 1.8154658503481176 2.5443584008171483 0.13573765195906773 0.71331369268591416 9.9794762868768903 2.6858862972330817 0.12896117692798759 7.5092046175559499 0.19293519295752082 5.5552739345803275 0.30455327057279646 0.12570919096469901 0.52714492911763988 0.22632292110210983 1.0563204194768347 1.2022949626552861 0.26169685786589969 0.74863934879249427 0.34583387710154057 1.1765931276968329 9.8621908187778882 6.3455059682346473 0.73771319586376216 0.20934055053658074 1.642910730661242 1.6431445575435644 0.43336879402340855 87.45162597979288 0.94893863750621976 0.40457006866927259 1.6876527279455329 0.90407413370849099 28.053046674234793 0.19296220250907936 2.2316775103099635 27.153716633067233 0.20183555326366331 0.2556684052105993 0.63657375810726069 0.3728174809293705 0.14378774142824091 0.66148867217634688 0.26219881512224685 0.84769877836515661 0.099116695520933717 0.29572456330060959 0.29178613913245499 4.897304327954771 27.925094777183407 1.5734605251636811 20.521247389820928 4.5540589807351353 1.4669715332274789 0.30174830989562906 0.42875247935444349 0.3511893063550815
leaf_count=66925 878 502 618 592 123 50 29 27 8 266 3543 1068 26 226 58 248 13 6 60 35 68 21 14 37 33 115 318 263 64 59 89 139 84 1010 49 66 72 39 291 54 18 172 60 31 68 154 42 75 9 76 16 25 15 193 323 38 302 49 25 24 23 64
internal_value=0.00100028 -0.0790814 0.0701593 0.0720922 0.0308187 0.00814817 0.0737789 0.0621684 0.0391327 0.0485347 -0.0829337 -0.0661424 -0.0302648 0.0537201 0.0132673 0.057405 -0.00915047 0.0261147 0.0379575 -0.0570473 0.076873 0.0778341 0.0476047 0.0321673 -0.0031705 0.0336146 0.0674987 0.058245 0.0371973 0.0158354 0.0465283 0.0337207 0.00230972 0.0781456 0.0746377 0.0255882 0.0505413 0.0343613 0.0783854 -0.00274261 0.0799111 0.0802775 -0.0162223 -0.0110858 0.034676 -0.065645 0.0211173 0.0358813 0.00572761 -0.00559175 -0.0509645 -0.0347058 0.0142362 0.0654041 0.0755445 0.0784909 0.0723829 0.0647386 0.0497434 -0.0345709 0.0483617 0.0193534
internal_weight=479.765 222.326 257.439 254.318 7.52934 6.53591 247.782 52.1377 21.5403 20.0718 214.796 16.2492 6.26972 19.1322 3.58383 6.11714 0.561869 3.08205 4.9887 0.939637 195.644 177.452 1.80983 6.72567 0.607531 2.88912 18.1924 8.33019 6.09237 1.71252 4.24657 2.60366 0.960514 175.642 58.8052 1.50318 3.32944 1.64179 30.5974 0.669861 116.837 114.605 0.633298 0.742126 1.98468 0.501779 2.76293 1.41013 1.3528 1.0906 0.242904 0.49756 0.92836 12.4065 56.9898 29.4986 27.4912 6.96997 2.41591 0.486458 0.833323 0.476898
internal_count=79988 73047 6941 6063 886 1069 4994 2179 1861 1243 72161 5236 1693 942 625 384 136 445 477 301 2815 2083 68 523 47 387 732 414 430 272 372 283 144 2015 815 213 175 103 318 124 1200 1182 93 105 151 180 255 112 143 134 58 85 83 419 786 361 425 123 74 74 89 70
is_linear=0
shrinkage=0.05


Tree=3
num_leaves=63
num_cat=0
split_feature=0 1 0 21 28 15 0 14 14 25 15 14 21 15 14 14 28 2 22 15 22 1 11 4 16 14 15 21 6 2 14 6 22 4 6 14 2 2 14 25 14 2 14 25 14 15 15 2 1 16 15 14 1 23 19 14 14 28 14 22 6 21
split_gain=926.272 24.4741 15.6382 10.3196 9.13792 5.61342 5.2976 4.82492 3.9621 2.45756 2.38553 1.64837 2.25294 1.63908 1.44803 1.34185 4.13612 1.33623 1.24876 1.19848 1.013 0.873044 0.83992 0.676579 0.663856 1.71434 0.65819 0.5905 0.582285 0.565807 0.553628 0.632335 0.535598 0.526106 0.686726 0.516069 0.439269 0.438539 0.399976 0.386989 1.26886 0.384394 0.673928 0.607497 0.479083 0.610209 0.376724 0.401511 0.342436 0.330726 0.326723 0.511307 0.305747 0.296567 0.291185 0.405917 0.289093 0.764186 0.707344 0.493154 0.337759 0.275917
threshold=0.60000000000000009 1.0000000180025095e-35 0.27500000000000008 134.50000000000003 1.0000000180025095e-35 0.63500000000000012 0.87500000000000011 0.59500000000000008 0.35500000000000004 0.65000000000000013 0.46500000000000002 0.6150000000000001 63.500000000000007 0.59500000000000008 0.42500000000000004 0.20500000000000004 1.0000000180025095e-35 0.2171666666666667 0.29722222222222228 0.69500000000000006 0.59166666666666679 0.22742946708463954 0.29166666666666669 0.68412500000000021 0.27500000000000008 0.63500000000000012 0.89500000000000013 95.500000000000014 7.8500000000000005 0.38366666666666677 0.49500000000000005 7.3500000000000005 0.90833333333333344 0.4921666666666667 4.9500000000000011 0.70500000000000007 0.18616666666666667 0.82016666666666682 0.83500000000000008 0.65000000000000013 0.50500000000000012 0.17750000000000002 0.67500000000000016 0.65000000000000013 0.45500000000000007 0.60500000000000009 0.56500000000000006 0.21483333333333335 0.2946898496240602 0.33500000000000008 0.59500000000000008 0.68500000000000016 0.55588428665351752 0.92500000000000016 0.52650000000000008 0.68500000000000016 0.62500000000000011 1.0000000180025095e-35 0.37500000000000006 0.48055555555555557 5.0500000000000007 17.500000000000004
decision_type=2 2 2 2 2 2 2 2 2 2 2 2 2 2 2 2 2 2 2 2 2 2 2 2 2 2 2 2 2 2 2 2 2 2 2 2 2 2 2 2 2 2 2 2 2 2 2 2 2 2 2 2 2 2 2 2 2 2 2 2 2 2
left_child=2 -2 -1 6 11 50 10 30 -7 29 14 -4 17 48 37 16 -12 26 -11 22 28 -20 23 -17 25 -24 38 41 -16 32 -5 -32 -10 34 -18 -8 49 -3 -13 40 -29 42 43 44 45 -26 47 -42 -9 -21 -6 -52 -19 -31 55 -41 57 58 59 -51 -61 -46
right_child=1 3 4 7 5 8 35 13 9 18 15 12 -14 -15 20 19 33 52 21 36 -22 -23 24 -25 27 -27 -28 39 -30 53 31 -33 -34 -35 -36 -37 -38 -39 -40 54 46 -43 -44 -45 61 -47 -48 -49 -50 56 51 -53 -54 -55 -56 -57 -58 -59 -60 60 -62 -63
leaf_value=-0.079200228406340195 -0.081395253775031012 -0.062019352921330095 -0.08271215587854848 -0.08417811208555627 -0.083863267205950956 -0.082716182216821046 0.072250022099855329 0.029788862353447 -0.078944581545639034 -0.054304833835686531 -0.08353345239908988 -0.085198363144555408 -0.082486475949258301 0.046063643797151825 -0.067093084499478747 -0.019987481001935092 0.044752058698687869 -0.033907795696696573 -0.083997487680402105 0.045735189564097417 0.050343862549447352 0.053697348533339108 -0.040170198378122073 0.058450178416213007 -0.033860910906791511 0.062255411515429598 0.038649162828726394 -0.049628198754574596 0.024701240186309887 -0.03228658555459795 -0.076186311400673362 0.020900001506447351 0.030855527441997634 0.067954118240393852 -0.080657374588448905 0.08052263005916295 0.070612195283742824 0.043838912739460188 0.022364736010769493 -0.032024084403657317 -0.052544502855558423 0.066773831635398878 0.066433938099685785 0.058445169718369508 0.064781941170750146 0.038940368147207242 0.055157771933771138 0.03899294245950731 -0.088227589084723279 -0.084422599884429489 -0.084258117603720706 0.020600666223645741 0.042932856457510285 0.060943258710537664 0.061528664614280505 0.050900609645336929 0.068663412973100885 0.068946032717433645 0.054677512800657337 0.039463872446646002 -0.032968918282994718 0.036734728643903779
leaf_weight=198.68346992274746 2.8490424908231935 0.53330095566343416 6.0853103371155157 1.2977882067862072 1.5546498831754436 0.83057344485860074 28.657977583752654 0.077130162215326314 0.62926405478356151 0.29742985143093381 0.62681019057345055 0.62764322730072386 1.7161363293162137 2.9657144056545803 0.31237837401567992 0.60705889726523199 0.48613186611328307 0.14981791978789238 0.11757461915840384 2.3709893157210891 3.0830083750479389 5.5081687608835637 0.5933393785962825 0.50248423614539206 0.48363583406899191 1.3115727321419397 0.17090164195542457 0.39584620477398713 0.38652975152945146 0.15899448162235785 0.33958994416752819 0.3313692541414639 0.1348680087539833 2.4353937228770519 0.14076944237604039 55.096920726682583 51.825502228704863 0.11981688626110554 0.10022785607725382 0.20672282057785185 0.17928005896101273 24.882282675127499 13.259722044764201 9.5621042043530906 1.2725968603044746 0.71095046220580116 2.2284017859346932 0.36104953338508494 0.30265409126877785 0.12002576456870861 0.25378308075596567 0.21452821815910283 0.95246918738121167 0.18403652496635914 4.215462569911324 0.51576556797954254 23.75942821388162 11.764963770168833 7.8693850564486638 0.72051071666646749 0.20723612126312219 2.8199472842970863
leaf_count=67427 878 142 2514 604 645 368 286 11 250 89 307 254 768 199 69 42 39 39 37 113 100 299 63 5 75 27 27 102 25 41 107 40 17 53 68 189 836 9 17 49 39 425 203 241 21 55 78 17 108 57 107 36 104 8 145 26 358 249 274 55 55 97
internal_value=0.00111465 0.0643541 -0.0749884 0.0659516 -0.032481 0.0014437 0.0673909 -0.00300796 0.0205588 0.0327599 0.0623416 -0.0666873 -0.0404534 0.0335396 0.0261503 0.063306 0.0334869 -0.00440525 0.0455408 0.0639819 0.038023 0.0508196 0.0586596 0.015535 0.0594192 0.030352 -0.0496537 0.0603255 -0.0163264 -0.0356164 -0.0651134 -0.0282379 -0.059565 0.0574394 0.0165916 0.077692 0.067441 -0.0425993 -0.0703869 0.0477544 0.0341046 0.0622476 0.058241 0.0509251 0.0373245 0.00946631 0.0460759 0.00862104 -0.0642597 0.0639302 -0.0728348 -0.0362235 0.032489 0.0177313 0.0565021 0.0271737 0.0649009 0.0605786 0.049539 0.010946 0.0232841 0.0454561
internal_weight=481.158 262.789 218.37 259.94 19.6864 9.88387 254.625 5.31425 7.86091 7.03034 170.87 9.80251 3.7172 3.3455 4.43503 166.435 3.68911 2.00106 5.92317 162.746 3.78192 5.62574 64.1082 1.10954 62.9987 1.90491 0.898773 61.0938 0.698908 1.10716 1.96875 0.670959 0.764132 3.0623 0.626901 83.7549 98.638 0.653118 0.727871 8.10253 3.16458 52.9912 28.109 14.8492 5.28713 1.19459 2.76873 0.54033 0.379784 46.8125 2.02296 0.468311 1.10229 0.343031 4.93795 0.722488 44.4415 20.6821 8.91716 1.04777 0.927747 4.09254
internal_count=79988 6941 73047 6063 5620 1897 4994 1069 1109 741 4519 3723 1209 318 345 4174 467 441 425 3707 194 336 1710 47 1663 90 298 1573 94 316 751 147 267 160 107 475 1997 151 271 456 236 1117 692 489 248 130 134 56 119 1161 788 143 143 49 220 75 1048 690 441 167 110 118
is_linear=0
shrinkage=0.05


Tree=4
num_leaves=63
num_cat=0
split_feature=0 1 12 17 14 12 21 0 0 15 21 14 2 15 15 0 14 17 21 14 15 14 12 14 2 1 15 12 2 15 17 0 21 12 14 13 14 14 2 16 2 6 16 14 21 21 16 14 14 21 15 21 15 13 4 0 16 16 14 12 14 14
split_gain=832.083 21.1757 18.4008 10.1925 15.7758 10.5166 6.34915 5.69292 2.5671 2.10919 2.05001 2.17202 1.87139 1.57527 1.51122 1.09784 2.50874 3.69211 3.27051 0.975197 0.915667 0.680465 1.43484 1.4115 0.780812 0.625249 0.587005 0.710203 0.700495 0.575451 0.563851 0.546772 0.513401 0.593451 0.498647 0.482084 0.635023 0.431757 0.385089 0.382489 0.47767 0.413095 0.380528 0.365346 0.349857 0.307724 0.298743 0.298705 0.296779 0.289959 0.285861 0.279326 0.290133 0.375422 0.277851 0.246142 0.24096 0.238234 0.237521 0.540105 0.446534 0.727074
threshold=0.60000000000000009 1.0000000180025095e-35 0.75000000000000011 1.0000000180025095e-35 0.49500000000000005 0.75000000000000011 102.50000000000001 0.27500000000000008 0.87500000000000011 0.65500000000000014 134.50000000000003 0.52500000000000013 0.30816666666666676 0.88500000000000012 0.49500000000000005 0.27500000000000008 0.6150000000000001 1.0000000180025095e-35 63.500000000000007 0.66500000000000015 0.72500000000000009 0.39500000000000007 0.75000000000000011 0.23500000000000001 0.20783333333333337 1.0000000180025095e-35 0.69500000000000006 0.75000000000000011 0.6106666666666668 0.62500000000000011 1.0000000180025095e-35 0.87500000000000011 122.50000000000001 0.75000000000000011 0.75500000000000012 1.0000000180025095e-35 0.7350000000000001 0.65500000000000014 0.28950000000000004 0.58500000000000008 0.89016666666666677 4.7500000000000009 0.39500000000000007 0.75500000000000012 50.500000000000007 51.500000000000007 0.37500000000000006 0.26500000000000007 0.75500000000000012 35.500000000000007 0.71500000000000008 62.500000000000007 0.48500000000000004 1.0000000180025095e-35 0.63316666666666677 0.87500000000000011 0.50500000000000012 0.57500000000000007 0.35500000000000004 0.75000000000000011 0.24500000000000002 0.23500000000000001
decision_type=2 2 2 2 2 2 2 2 2 2 2 2 2 2 2 2 2 2 2 2 2 2 2 2 2 2 2 2 2 2 2 2 2 2 2 2 2 2 2 2 2 2 2 2 2 2 2 2 2 2 2 2 2 2 2 2 2 2 2 2 2 2
left_child=2 -2 15 4 5 55 14 -4 10 -9 20 -12 13 -8 34 -1 -17 -18 25 26 21 22 23 -5 49 -19 27 28 45 38 39 42 -14 -34 -6 37 -37 -10 -27 40 41 -11 43 -21 -28 -16 -13 -7 -15 -25 -49 -23 53 -53 -46 -3 -26 -51 59 60 61 -22
right_child=1 3 7 8 6 47 12 9 35 30 11 46 32 48 19 16 17 18 -20 31 58 51 -24 24 56 29 44 -29 -30 -31 -32 -33 33 -35 -36 36 -38 -39 -40 -41 -42 -43 -44 -45 54 -47 -48 50 -50 57 -52 52 -54 -55 -56 -57 -58 -59 -60 -61 -62 -63
leaf_value=-0.075182746076342774 -0.076905134400080746 -0.080488412733336109 -0.075203346846323293 -0.079517741551196591 -0.032923129370717438 0.0093212436720044416 -0.07933307308987983 -0.078533510534700091 0.068285886284184222 0.010510301909528711 -0.06710821916830749 -0.010865228106105261 0.048908762197192146 -0.021777141873933561 0.014941358902049779 -0.07780223414793333 -0.079563877640919864 -0.078125332180836685 -0.076352561455665088 -0.0058001183661517339 -0.076239449835894799 0.06430014491142319 0.062530868121460512 0.030729557906572655 0.027885091292952885 -0.082324094480891355 0.063050063080926352 0.059425138100432845 0.061354772134332908 0.058158969682242129 0.062226689308524957 0.07358010571531591 -0.065991540935238346 0.073600908589727385 0.034422001033251014 0.071139316353452678 0.040391278069951755 0.07726609638569093 0.034501884555589987 0.050813646261358918 0.058898024534083195 -0.075068146919855999 0.060997181654891999 0.053098465182177659 0.051179905882699467 -0.02794808807590703 0.048533236848947281 0.02329803273164667 0.05358936734613956 -0.044933165830195021 0.064438277440969291 -0.014269623827629842 0.05747471126779783 0.052598684897991244 0.023382061244252832 0.0041444522592990109 0.061060541105105386 0.023853071786694213 0.06839305962282452 0.069707634764213919 0.052189310023217472 0.047095139349984272
leaf_weight=196.84375940519385 2.7763612095732233 4.010977272719173 1.404855225002392 0.31708230208459864 0.56931343732867279 0.43055711100169025 1.2751263182944961 0.35183354977198167 17.456759269582108 0.36569716921076156 0.56637711180155692 0.23629095898650154 0.94234826390311333 0.22188126372202521 1.3329135437961661 8.0925680081454612 2.3692603538438552 0.10615581809543106 0.86628726664639533 0.42029989873117546 0.18769766952936917 24.954372591222636 5.1133855415391736 0.34442792378831688 0.93807956521050107 0.13018228951841582 5.8293464193993696 1.5377167152473701 0.65275065024616186 1.6091843322865313 2.8051240685308585 10.061416926771928 0.24078419758734526 0.11134668439626694 0.53145257399592083 5.9515318304765952 2.3391356500796974 57.378616512753069 0.1539586558501469 0.76680830082477769 0.25861766084562987 0.22951499948248966 19.598433330756961 0.70480478653917089 4.3876494772412116 0.60943120669980988 2.0326675480428094 0.55400721640035078 0.31758496875409037 0.46299854032986332 1.7753058361995497 0.32920885575731418 14.838630873819055 0.57920126809040084 1.1305698023934381 0.087791081670729798 1.3140028041088951 0.17287486023269594 59.563148198096314 5.7217920580296777 3.3843285384500632 0.32885556208202615
leaf_count=66925 878 1511 502 156 72 35 390 171 128 31 260 34 60 43 65 3543 1018 35 438 28 111 343 65 20 37 55 105 28 21 125 92 51 72 2 34 46 37 115 22 31 12 47 336 23 116 68 136 60 18 88 62 41 308 24 29 22 29 16 629 45 132 12
internal_value=0.000989946 0.060455 -0.0717415 0.0619114 0.0432802 -0.0278707 0.0529483 0.0132769 0.0671346 0.0392946 0.0624988 0.0204829 -0.0162678 -0.0490316 0.0574916 -0.0742424 -0.0603545 -0.033383 0.0047968 0.0588692 0.0635037 0.0583015 0.045577 0.0211531 0.0310285 0.0399553 0.0486323 0.0324988 0.0165437 0.0465758 0.0486615 0.0640168 0.0296603 -0.0218513 -0.000408733 0.0739039 0.062464 0.0751713 -0.0190232 0.0251819 0.00216248 -0.0224889 0.0593738 0.031096 0.0545082 0.00148434 0.0423474 0.0475813 0.0225913 -0.00621878 0.0546534 0.0610098 0.0557955 0.0283655 0.0454847 -0.0786757 0.0472417 -0.0262323 0.0672155 0.0599268 0.0455803 0.00227959
internal_weight=480.975 264.622 216.354 261.845 57.3338 6.85864 50.4752 6.18245 204.511 4.7776 121.385 2.83534 3.10907 1.81459 47.3661 210.171 13.3276 5.23503 2.86577 46.2653 118.55 49.3643 8.66285 3.54947 3.23238 1.99948 15.4804 4.13281 2.5951 1.89333 4.42576 30.785 1.29448 0.352131 1.10077 83.126 8.29067 74.8354 0.284141 1.62064 0.85383 0.595212 20.7235 1.1251 11.3476 1.94234 2.26896 2.75987 0.539466 0.980301 2.32931 40.7014 15.747 0.90841 5.51822 4.09877 2.25208 0.635873 69.1858 9.62267 3.90088 0.516553
internal_count=79988 6941 73047 6063 3251 1690 1561 886 2812 384 2486 430 585 451 976 72161 5236 1693 675 870 2056 1127 411 346 190 237 432 182 154 202 213 438 134 74 106 326 83 243 77 121 90 78 387 51 250 133 170 157 61 124 122 716 373 65 145 1533 66 104 929 300 255 123
is_linear=0
shrinkage=0.05


Tree=5
num_leaves=63
num_cat=0
split_feature=2 25 21 3 17 14 21 28 13 12 14 1 12 21 15 1 14 17 16 14 14 12 22 15 15 21 14 22 12 7 14 1 4 16 17 1 15 14 15 14 17 17 15 14 14 22 2 14 3 16 6 4 25 2 17 21 14 14 15 17 21 4
split_gain=315.756 107.962 48.7555 38.22 21.9804 21.2303 16.676 13.7182 11.923 10.7047 18.0438 8.86347 8.27318 8.15194 5.64225 4.91917 4.08702 4.03433 3.82291 3.77907 3.64788 3.57308 3.45028 3.14811 3.10412 2.98763 2.8971 2.42926 2.42888 2.28613 2.20694 2.20308 2.18668 1.80804 1.69387 1.59535 1.55642 1.45171 1.44988 1.43374 1.37052 1.23973 1.58047 1.16891 1.10802 1.07002 1.04105 1.03944 1.03179 1.01963 0.978301 0.972851 0.963547 1.14324 0.959546 0.949796 0.868352 0.868198 0.851681 0.850444 0.945455 0.836725
threshold=0.13683333333333336 0.65000000000000013 134.50000000000003 0.37750000000000006 1.0000000180025095e-35 0.49500000000000005 134.50000000000003 1.0000000180025095e-35 1.0000000180025095e-35 0.75000000000000011 0.44500000000000006 1.0000000180025095e-35 0.75000000000000011 94.500000000000014 0.50500000000000012 1.0000000180025095e-35 0.59500000000000008 1.0000000180025095e-35 0.75500000000000012 0.46500000000000002 0.20500000000000004 0.75000000000000011 0.4694444444444445 0.45500000000000007 0.88500000000000012 104.50000000000001 0.78500000000000014 0.29166666666666669 0.75000000000000011 34.500000000000007 0.57500000000000007 1.0000000180025095e-35 0.72716666666666685 0.33500000000000008 1.0000000180025095e-35 0.099689440993788833 0.49500000000000005 0.47500000000000003 0.69500000000000006 0.72500000000000009 1.0000000180025095e-35 1.0000000180025095e-35 0.66500000000000015 0.79500000000000015 0.47500000000000003 0.61944444444444458 0.29683333333333339 0.24500000000000002 0.13016666666666668 0.53500000000000014 8.0500000000000025 0.62216666666666676 0.65000000000000013 1.1988333333333336 1.0000000180025095e-35 76.500000000000014 0.48500000000000004 0.26500000000000007 0.63500000000000012 1.0000000180025095e-35 132.50000000000003 0.39025000000000004
decision_type=2 2 2 2 2 2 2 2 2 2 2 2 2 2 2 2 2 2 2 2 2 2 2 2 2 2 2 2 2 2 2 2 2 2 2 2 2 2 2 2 2 2 2 2 2 2 2 2 2 2 2 2 2 2 2 2 2 2 2 2 2 2
left_child=1 3 4 7 5 12 9 8 18 10 40 -6 -2 16 51 -12 34 22 24 -9 28 25 -17 48 26 31 32 -21 -13 44 -24 -16 61 -33 -5 -29 -32 -10 46 -8 -3 42 -37 -4 45 49 -35 -42 -22 -25 -31 -7 53 -52 -18 -49 -20 -36 -41 -15 -61 -1
right_child=2 6 43 13 11 14 39 19 37 -11 15 20 -14 59 21 17 54 -19 56 27 23 -23 30 29 -26 -27 -28 35 -30 50 36 33 -34 38 57 41 -38 -39 -40 58 47 -43 -44 -45 -46 -47 -48 55 -50 -51 52 -53 -54 -55 -56 -57 -58 -59 -60 60 -62 -63
leaf_value=-0.069931498549275758 -0.072389038387504254 -0.073331857986369181 -0.066794783926532528 -0.055007585049243024 -0.072918818971316843 -0.073769957442455 -0.067890590935327053 -0.052686243134295478 -0.054192815947011447 0.056933253987565852 -0.072474283569025286 -0.072273519115282722 0.030908171666855895 -0.073193518415948719 -0.07256612490243429 -0.063914346639021624 0.022156579057701156 0.045946580941870263 -0.074202088906354838 -0.062473151180109147 0.021609050648645843 0.063655613745350823 -0.036742804842801367 -0.046796381971649086 -0.0053889448982278633 -0.041871252911368784 0.00034720728404926673 -0.07264443595093005 0.051180009547587939 0.066746127352360837 -0.061072962645595752 -0.065207622034370097 0.014782609873304112 -0.045716268070936823 -0.073903680870306812 -0.071060504021202356 0.032903064550430051 0.0452548814100363 0.048216276280174435 -0.073923171303442156 -0.072999317287420665 0.043066778333715104 0.020700570347230558 0.0052405940951340685 0.054739779088480003 0.044319912545364132 0.02503230438408309 0.0019753126343710352 -0.067553068223228874 0.032640753971542986 -0.071860552750893175 0.01011232644394461 0.05171182908054707 0.073048375008159805 0.057802548258188806 -0.059914961950864737 0.041747511644706373 0.023539927344040791 0.005411116639688786 -0.00090248141732718248 -0.073023789262815095 -0.057757710291859776
leaf_weight=145.79885450461734 7.1248421365380619 4.2501422624845855 9.1942913849816215 1.3935513351898436 1.2314566306304175 1.2074561705812801 5.22923781715508 3.3979606337088617 0.42402302750997423 19.946434096338635 1.1602157349698234 0.83569503182661609 2.6627978310352773 1.879614713619957 0.45994865405373886 1.4097934575693205 2.4858821960806363 20.372570587749578 0.19264713110533083 1.0138087125815198 0.83523339917883166 13.418559668451051 1.5169279594265379 0.76631245287717564 2.0235530380487026 1.345531073398887 1.5494769506840373 0.43489486421458412 0.76143313714419492 122.42299984692727 0.46348815443343383 0.4116314238926887 0.78721976676024397 0.64352414390305357 0.25426445099583395 0.61363086674828116 8.9172446379452577 2.7272898569717654 13.404393703276581 0.4595055915051488 1.1509506978545685 4.1670773499135976 1.9944328956189563 0.59989902129018524 20.128601180465921 3.4558035967929754 2.7081595490017207 2.0319986500689997 0.53058314858935773 0.85429277119692415 0.36686370428651516 0.48429637403751247 3.2402367114482331 0.21639162302017212 7.8486803093692288 0.89204301702557121 0.99782294352917233 2.2635430985901621 1.2824634308926759 1.2902054614096412 0.70148041372885939 15.627574930062108
leaf_count=48558 2596 1608 3161 411 402 404 1901 1087 148 551 381 332 252 673 151 467 240 1121 72 320 86 256 353 210 362 365 234 143 33 1428 135 133 90 161 96 198 678 158 607 172 455 224 211 110 705 230 278 353 166 69 123 63 142 1 188 290 74 227 207 217 251 4705
internal_value=0.000480799 -0.0353596 0.0465333 -0.053984 0.0518799 0.0206208 0.0185236 -0.0608873 -0.0644776 0.0267536 0.012477 0.0606907 -0.0442863 0.0152686 0.0392599 0.0287002 0.0327525 0.0322921 -0.066296 -0.00833009 0.0617563 0.0439091 0.00968973 0.0625419 -0.0669371 0.0299436 -0.0676976 0.00999716 -0.0134169 0.0632234 0.0192116 0.0354252 -0.0683476 0.0383185 -0.0107797 0.0201873 0.0282598 0.0318738 0.0408617 -0.0548032 -0.0534673 0.0261461 -0.000889173 -0.0623826 0.0494751 0.0285999 0.0114486 -0.0327489 -0.013028 -0.00492155 0.0659683 -0.0497571 0.0410626 -0.0180984 0.0492282 -0.0169057 0.022984 0.0136994 -0.0155161 -0.04907 -0.0263039 -0.068753
internal_weight=478.262 268.951 209.311 199.867 199.517 43.8711 69.083 181.75 170.128 62.1118 42.1654 155.646 9.78764 18.1172 34.0835 33.8402 14.2459 32.68 166.977 11.6218 154.414 32.3917 12.3075 152.817 165.787 18.9732 163.763 8.22384 1.59713 151.452 10.8977 17.6277 162.214 17.1677 3.91136 7.21004 9.38073 3.15131 16.7561 6.97121 8.32513 6.77514 2.60806 9.79419 25.205 5.07641 3.35168 4.07499 1.36582 1.62061 126.246 1.69175 3.82349 0.583255 10.3346 2.92404 1.19047 2.51781 1.74197 3.8713 1.99169 161.426
internal_count=80023 67559 12464 58887 9193 5266 8672 56584 54401 6392 5841 3927 2848 2303 2418 3135 1162 2754 54095 2183 3525 1951 1633 3160 53949 1695 53587 1096 365 2908 1166 1330 53353 1179 734 776 813 306 1046 2280 2706 633 409 3271 1214 509 439 1098 252 279 1694 467 266 124 428 643 146 323 379 1141 468 53263
is_linear=0
shrinkage=0.05


Tree=6
num_leaves=63
num_cat=0
split_feature=2 25 21 3 7 22 14 13 28 1 14 17 14 6 25 17 1 1 14 16 22 17 14 22 17 15 28 21 14 15 14 15 17 18 2 15 21 1 14 14 13 1 4 4 17 17 17 15 14 21 14 21 14 28 28 15 7 14 14 14 3 14
split_gain=324.694 100.815 44.9288 34.1571 20.7691 14.927 10.4523 10.3785 9.88384 8.52749 8.0349 6.64438 7.00345 6.01831 5.24455 5.12968 4.63846 4.55063 3.6804 3.27767 3.2426 3.18851 4.13597 3.08502 2.80497 2.22004 2.20405 2.17819 2.12113 2.01187 1.948 1.77317 1.75735 1.49242 1.46454 1.35441 1.33951 1.33571 1.32841 1.29609 1.28586 1.18335 1.17601 1.14841 1.12911 1.08575 1.07637 1.2801 1.04056 0.990855 0.957967 0.85755 0.830857 1.49902 0.816969 0.788378 0.76118 0.749196 0.747073 0.721634 0.706065 0.649509
threshold=0.13683333333333336 0.65000000000000013 134.50000000000003 0.38050000000000006 34.500000000000007 0.25277777777777782 0.47500000000000003 1.0000000180025095e-35 1.0000000180025095e-35 1.0000000180025095e-35 0.59500000000000008 1.0000000180025095e-35 0.49500000000000005 8.0500000000000025 0.65000000000000013 1.0000000180025095e-35 1.0000000180025095e-35 1.0000000180025095e-35 0.46500000000000002 0.75500000000000012 0.44722222222222224 1.0000000180025095e-35 0.49500000000000005 0.47500000000000003 1.0000000180025095e-35 0.88500000000000012 1.0000000180025095e-35 127.50000000000001 0.17500000000000002 0.6150000000000001 0.78500000000000014 0.7350000000000001 1.0000000180025095e-35 0.64950000000000008 1.1988333333333336 0.49500000000000005 86.500000000000014 0.099689440993788833 0.47500000000000003 0.75500000000000012 1.0000000180025095e-35 0.24253565062388596 0.72716666666666685 0.35825000000000001 1.0000000180025095e-35 1.0000000180025095e-35 1.0000000180025095e-35 0.66500000000000015 0.80500000000000016 103.50000000000001 0.70500000000000007 97.500000000000014 0.32500000000000007 1.0000000180025095e-35 1.0000000180025095e-35 0.66500000000000015 22.500000000000004 0.48500000000000004 0.22500000000000003 0.26500000000000007 0.57283333333333342 0.54500000000000015
decision_type=2 2 2 2 2 2 2 2 2 2 2 2 2 2 2 2 2 2 2 2 2 2 2 2 2 2 2 2 2 2 2 2 2 2 2 2 2 2 2 2 2 2 2 2 2 2 2 2 2 2 2 2 2 2 2 2 2 2 2 2 2 2
left_child=1 3 4 7 6 39 15 8 19 -7 32 12 26 16 34 -2 -6 -8 -10 25 -14 22 31 -12 29 30 -11 37 -13 40 42 54 -5 45 -15 -22 41 -20 -9 -3 -19 -17 -1 -28 -25 61 47 -39 -4 59 -23 -31 53 -30 -18 -45 -53 -21 60 -34 -43 -16
right_child=2 5 48 10 13 9 17 38 18 11 23 28 20 14 33 36 21 24 27 57 35 50 -24 44 -26 -27 43 -29 52 51 -32 -33 49 -35 -36 -37 -38 46 -40 -41 -42 58 -44 55 -46 -47 -48 -49 -50 -51 -52 56 -54 -55 -56 -57 -58 -59 -60 -61 -62 -63
leaf_value=-0.068435782458464267 -0.065805532138412143 -0.066592016818690161 -0.067471917921606769 -0.066785627520045479 -0.070702611154736847 -0.070017955346445546 -0.070097915215337522 -0.05511842422832907 -0.062437404936861507 -0.070600046127334545 -0.036495239670052963 -0.036628992378513636 -0.059971062672131661 -0.069550225987093026 -0.070860381206053674 -0.063315181114873526 -0.072013723281848907 -0.053594180388480517 -0.069870331807804192 -0.070762400056992844 -0.040318829966531133 0.059185046785044132 0.052942741930601646 0.01343320314057617 0.048166536741426985 -0.011108236913670895 -0.048078891398607701 -0.071300224379830981 -0.024466655899913245 0.033231306301626143 -0.0058523632039354555 0.025144845298814968 -0.070451674621390861 0.076401394994653635 0.070302540780545583 0.034031042618215795 -0.041020733058206152 -0.07190008189030371 0.037377889434282822 -0.01122439356160395 0.02987420788831123 -0.0697680456723343 0.0018029883325057804 -0.050611505001830162 0.055646894920570671 0.038467788734043912 0.039385183905237188 0.016224771015082778 0.0061545311464873756 -0.055572153193839048 0.067564188934280109 -0.072526375069842927 0.045522874871055607 0.041573799635866542 -0.0013374276141519775 0.032055534328286617 0.027782045903036696 0.037504798776770293 0.033799215018409698 0.016121629436809868 0.046642468299026303 0.0083046323311792656
leaf_weight=158.76452041434823 4.5243189232805872 5.2214395098962987 8.5822052892035536 2.4941925062812542 0.67914702580310304 2.3089752597734323 1.0347910549026007 0.44771578211657415 2.8595108462177432 2.9938321627851137 1.2438356358470617 0.86166108823090226 1.0677827721228812 1.7995894702617072 0.40106519928667717 0.41222768777515728 0.94010049245844374 1.4974690089002272 0.42779101873747993 0.19313253192740265 0.64292453593225118 69.179843968018758 22.205169865985226 1.9865309992455857 18.096344300807687 1.7530284761050996 1.1826082219777165 0.82388931609602867 1.2349563107418351 6.3217053369571659 1.2638873468531517 2.5374706398251874 0.27223812261945646 1.8144762217998502 0.20893044769763935 12.957334457540126 1.2402500596945172 0.54439165012445334 2.9187286074447911 1.3252438328199785 0.66690177444252174 0.36272513799485739 0.59818022511899371 0.36118783827987488 7.8185070054532844 2.742015026640729 3.4241343953835894 1.6955728203756733 0.50831222631677597 0.90113201126223419 67.289447617047699 0.38377100053912716 31.364741296469219 2.8245254316716455 0.72360107759595849 1.4313337674975626 0.3728920557332458 0.92546414177195402 3.6283062433794839 2.0782683553698007 0.20324240601621568 0.73194082711415831
leaf_count=53293 1551 1995 3175 876 218 752 339 170 1067 1129 339 237 379 592 152 125 356 445 140 72 184 1178 773 236 795 362 356 310 292 488 234 303 102 4 1 980 342 189 199 285 75 137 91 111 186 184 219 200 96 281 401 145 1664 171 110 137 43 74 308 247 12 116
internal_value=0.000661731 -0.0372119 0.0454718 -0.0553955 0.0501827 0.0162604 0.0171243 -0.0618742 -0.0635635 0.024179 0.0127444 0.0279999 0.00534827 0.057662 0.0144574 -0.0258309 0.0596955 0.032825 -0.0147254 -0.0664834 0.0239291 0.0602393 0.0443355 0.0376841 0.0367207 -0.067071 -0.0403121 0.00500236 0.0408826 0.0143109 -0.0676818 -0.00115768 -0.0352131 0.0389782 -0.0550024 0.0305163 0.00510211 0.0153218 0.0250765 -0.055384 -0.0278753 0.0175202 -0.0681721 -0.00983372 0.0470943 0.0214549 0.0217561 -0.00519273 -0.063355 -0.0109952 0.0633166 0.0272103 0.042768 0.0214833 -0.0412742 0.0153984 -0.0230933 0.0188118 0.025465 0.00609462 -0.0279643 -0.0197185
internal_weight=478.301 259.213 219.088 193.435 209.998 65.7785 38.7449 176.64 173.274 59.2319 16.7947 56.9229 20.637 171.253 7.69802 10.3711 163.555 28.3739 9.77529 163.498 14.668 162.876 26.4063 11.0489 27.3391 162.38 5.96896 6.91578 36.2859 9.24274 160.627 4.20117 5.74583 5.6895 2.00852 13.6003 5.84675 6.09189 3.36644 6.54668 2.16437 4.6065 159.363 2.97513 9.80504 3.87502 5.6641 2.23996 9.09052 3.25164 136.469 7.07837 35.4242 4.05948 1.6637 1.79252 0.756663 1.1186 4.19427 2.35051 0.565968 1.13301
internal_count=80023 67559 12464 58887 9193 8672 4805 56620 56251 6392 2267 5640 3276 4388 1049 2475 3339 2330 2125 54126 1543 3121 1542 761 1991 53980 1733 1058 2364 1196 53618 769 1506 456 593 1164 924 748 369 2280 520 582 53384 604 422 452 608 389 3271 630 1579 676 2127 463 466 248 188 146 457 349 149 268
is_linear=0
shrinkage=0.05


Tree=7
num_leaves=63
num_cat=0
split_feature=0 12 24 21 0 17 14 12 0 14 17 22 14 15 15 0 21 14 12 14 14 15 12 11 14 11 7 15 0 16 22 15 16 22 21 3 4 7 15 22 14 15 15 18 7 15 22 14 12 14 19 18 15 7 4 15 18 15 15 14 27 15
split_gain=662.372 20.9357 17.7392 9.64406 6.63636 3.23349 5.98592 8.1624 2.6703 3.98688 4.67496 3.56677 2.08188 2.07986 1.30691 1.10347 0.891167 0.841034 1.13958 2.14759 0.649884 0.627348 0.614193 0.570799 0.504918 0.429276 0.401157 0.384957 0.364712 0.355561 0.509957 0.320526 0.282918 0.268802 0.268678 0.277644 0.425551 0.512289 0.268686 0.238497 0.233472 0.231147 0.223439 0.282606 0.233942 0.217892 0.326406 0.407121 0.302173 0.228648 0.216685 0.214671 0.204205 0.198345 0.181405 0.164104 0.405608 0.223111 0.15951 0.376372 0.158165 0.145415
threshold=0.60000000000000009 0.75000000000000011 1.0000000180025095e-35 134.50000000000003 0.27500000000000008 1.0000000180025095e-35 0.49500000000000005 0.75000000000000011 0.27500000000000008 0.6150000000000001 1.0000000180025095e-35 0.64722222222222225 0.72500000000000009 0.65500000000000014 0.49500000000000005 0.87500000000000011 104.50000000000001 0.35500000000000004 0.75000000000000011 0.23500000000000001 0.74500000000000011 0.63500000000000012 0.75000000000000011 0.85164835164835173 0.68500000000000016 0.82575757575757591 28.500000000000004 0.6150000000000001 0.87500000000000011 0.48500000000000004 0.45833333333333343 0.71500000000000008 0.48500000000000004 0.35833333333333339 10.500000000000002 1.3105000000000002 0.63112500000000005 59.500000000000007 0.63500000000000012 0.64722222222222225 0.54500000000000015 0.75500000000000012 0.69500000000000006 0.46950000000000003 56.500000000000007 0.58500000000000008 0.66388888888888908 0.53500000000000014 0.75000000000000011 0.49500000000000005 0.59150000000000014 0.36450000000000005 0.76500000000000012 55.500000000000007 0.71412500000000012 0.68500000000000016 0.22950000000000001 0.63500000000000012 0.75500000000000012 0.81500000000000006 0.80000000000000016 0.64500000000000013
decision_type=2 2 2 2 2 2 2 2 2 2 2 2 2 2 2 2 2 2 2 2 2 2 2 2 2 2 2 2 2 2 2 2 2 2 2 2 2 2 2 2 2 2 2 2 2 2 2 2 2 2 2 2 2 2 2 2 2 2 2 2 2 2
left_child=1 8 -2 5 -3 6 7 28 -1 -10 -11 -12 54 -6 20 17 26 18 19 -7 -8 -14 24 25 -18 -13 27 39 -4 52 33 50 -29 -31 -17 -36 -37 -38 -39 -16 41 -15 43 -28 -45 46 47 48 49 53 -9 -22 -21 -19 -5 56 57 -25 59 -26 -41 -32
right_child=2 4 3 12 13 15 14 31 9 10 11 23 21 40 16 34 22 45 -20 29 51 -23 -24 55 58 -27 42 32 -30 30 61 -33 -34 -35 35 36 37 38 -40 60 -42 -43 -44 44 -46 -47 -48 -49 -50 -51 -52 -53 -54 -55 -56 -57 -58 -59 -60 -61 -62 -63
leaf_value=-0.067479713785804279 -0.06879400508073362 -0.071344878427028566 -0.071736428786675549 -0.069196823205073754 -0.073322010066862314 -0.067774730540198197 -0.068972756656344461 -0.02700806819042393 -0.068997706009826854 -0.071182163774400981 -0.068989991790577923 -0.060052490248974792 -0.071177906957026651 0.0016379937742325359 -0.029053183106266041 0.069288447220000132 -0.055567430041772892 -0.065211195836057126 0.057684461570496351 -0.016231431163285886 -0.012143452272145987 0.039018398631611176 0.059803903278240547 -0.075320453647746227 -0.077582729573931489 0.044400252980871371 0.055532623626722413 0.026718971816474198 0.031399414649320029 -0.078590116319998571 0.035482778296085225 0.05690202173079028 0.053424243262946675 0.018753708783120226 0.065101593952387085 0.06407124353125157 0.063809468519599941 0.04851066352635134 0.019553768862818992 0.0086986489808788588 0.056157327172419697 0.043479702510603464 0.060760472873110899 0.051284611796902274 0.012569520587716801 0.060286174969609363 0.058906423607148373 0.051694724954944364 0.052361050668209896 0.021291941154887847 0.036174673449716699 0.059936187239365182 0.032092394126129652 0.019918744552231686 -0.0075573323397778065 0.055792618468981217 0.055802382938323639 0.021053725486867916 0.042297793315164242 0.045062226256309644 0.051421775351570331 0.054107206963120727
leaf_weight=197.20546870469116 2.846517286496236 1.6615309540648002 2.4688019904351672 1.7519615090568543 0.37218982194463013 0.5103624609619154 0.30731248250231047 0.18843345496134167 8.0731069971370726 2.4705088693954158 0.95875514750514401 0.22752355052216477 0.15100919052201767 0.41087873934884589 0.21269639418460318 25.435659824870527 0.35401125869975547 0.18116581524373276 9.8173097471881192 0.40702278749085952 0.19069998798295273 0.892492283743195 0.5085960684082238 0.11417898506624657 0.11379925657820422 0.17327591078355908 7.1171822121832538 1.1371030724985738 0.088800899284251389 0.11651585371873796 1.5474457257259926 2.8096575493691489 7.7590691852346936 0.18121484850416891 43.342023726087064 8.5286242635920626 2.4026212799362829 1.5236687008291485 1.6892228331416843 0.43379137689771596 3.7011186672898475 1.6783462881285229 22.346854675204668 0.78497019596397855 0.77588489884510636 82.813662048014521 12.976720210281199 4.9177930573423509 0.48433595022652298 0.57709077745676041 0.48486710881115869 0.22537995890888851 0.47228881646879017 0.10994616174139082 0.12809008877957229 2.1170686568220844 0.44874540547607467 0.12668471375945956 0.33953442663550959 0.13891400396823883 0.43274069344624877 3.247588819169323
leaf_count=67008 920 499 1101 858 160 267 93 30 3554 1034 440 80 70 36 34 64 111 41 108 33 36 97 27 42 41 10 159 64 21 38 70 84 207 24 157 41 13 11 31 33 75 91 331 20 24 989 183 128 10 23 44 10 23 10 34 85 25 11 38 10 19 93
internal_value=0.000714184 -0.0629813 0.0553298 0.0567239 0.0173389 0.0577777 0.0462899 -0.000329251 -0.0659468 -0.0453962 -0.0166867 0.0156282 -0.033563 0.0412496 0.0528118 0.0605867 0.0539473 0.0574881 0.0469415 0.0306717 -0.0138286 0.0230715 0.0154909 0.0409216 -0.0083265 -0.0148949 0.0553118 0.0465897 -0.0681555 0.0390848 0.0441542 0.0494769 0.0500108 -0.0193415 0.0650097 0.0631166 0.0570338 0.0463457 0.0332862 0.0183892 0.048614 0.0352509 0.0581163 0.0513071 0.0320397 0.0591724 0.0543803 0.0450132 0.0207193 0.00306764 0.018492 0.0269003 0.00972388 -0.0330596 -0.0649973 0.0488923 0.0277088 -0.0246315 0.0199114 -0.010166 0.0300343 0.0480968
internal_weight=476.011 219.739 256.271 253.425 7.82406 250.501 49.2191 6.04056 211.915 14.7098 6.63674 4.16623 2.92355 6.16253 43.1785 201.282 42.4551 118.36 16.2997 6.48244 0.723392 1.0435 1.45486 3.20748 0.946259 0.400799 41.0003 9.9754 2.5576 5.97208 5.09277 3.48296 8.89617 0.297731 82.9218 57.4862 14.1441 5.61551 3.21289 1.07923 5.79034 2.08923 31.0249 8.67804 1.56086 102.061 19.2471 6.27033 1.35254 0.868203 0.673301 0.41608 0.879312 0.291112 1.88005 2.80668 0.689609 0.240864 0.592248 0.252713 0.866532 4.79503
internal_count=80023 73150 6873 5953 861 4894 2537 1280 72289 5281 1727 693 1059 362 1257 2357 1118 2040 656 548 139 167 227 253 200 90 891 357 1122 281 225 158 271 62 317 253 96 55 42 86 202 127 534 203 44 1384 395 212 84 74 74 46 56 51 892 163 78 53 89 51 52 163
is_linear=0
shrinkage=0.05


Tree=8
num_leaves=63
num_cat=0
split_feature=0 1 0 21 28 15 0 14 17 14 25 14 17 21 14 7 7 15 14 15 1 21 2 15 28 14 21 1 15 7 2 14 2 7 16 14 17 16 2 15 28 14 14 16 19 2 11 19 3 21 21 21 14 2 3 2 15 21 18 14 27 15
split_gain=611.249 16.1783 15.7223 8.62193 5.27674 4.26433 3.39168 2.59028 2.51193 4.40643 2.82658 2.25702 2.66986 2.11585 1.85585 1.80686 1.04777 0.994172 0.851892 0.800018 0.709392 0.644874 0.913979 0.821746 0.612623 0.596729 0.526275 0.522573 0.52161 0.480697 0.577645 0.427784 0.426247 0.76737 0.411109 0.410399 0.408104 0.459503 0.691543 0.364147 0.342688 0.521652 0.543818 0.319921 0.317728 0.287195 0.271791 0.263038 0.251602 0.280062 0.245866 0.490968 0.24466 0.242885 0.242441 0.239257 0.346865 0.248038 0.224038 0.22297 0.207713 0.2048
threshold=0.60000000000000009 1.0000000180025095e-35 0.27500000000000008 134.50000000000003 1.0000000180025095e-35 0.65500000000000014 0.87500000000000011 0.35500000000000004 1.0000000180025095e-35 0.50500000000000012 0.65000000000000013 0.6150000000000001 1.0000000180025095e-35 63.500000000000007 0.72500000000000009 8.5000000000000018 26.500000000000004 0.49500000000000005 0.35500000000000004 0.71500000000000008 0.25828395874478832 99.500000000000014 0.31750000000000006 0.88500000000000012 1.0000000180025095e-35 0.74500000000000011 8.5000000000000018 0.49354811854811859 0.63500000000000012 17.500000000000004 0.17550000000000002 0.26500000000000007 2.0493333333333337 69.500000000000014 0.35500000000000004 0.70500000000000007 1.0000000180025095e-35 0.58500000000000008 0.74916666666666676 0.76500000000000012 1.0000000180025095e-35 0.24500000000000002 0.23500000000000001 0.33500000000000008 0.59150000000000014 0.13683333333333336 0.58571428571428574 0.7985000000000001 0.83033333333333348 20.500000000000004 26.500000000000004 25.500000000000004 0.49500000000000005 1.511166666666667 0.30116666666666675 0.24050000000000002 0.76500000000000012 39.500000000000007 0.36450000000000005 0.62500000000000011 0.80000000000000016 0.70500000000000007
decision_type=2 2 2 2 2 2 2 2 2 2 2 2 2 2 2 2 2 2 2 2 2 2 2 2 2 2 2 2 2 2 2 2 2 2 2 2 2 2 2 2 2 2 2 2 2 2 2 2 2 2 2 2 2 2 2 2 2 2 2 2 2 2
left_child=2 -2 -1 6 11 50 8 -7 9 10 48 -4 -13 27 -5 26 52 25 29 24 -17 34 23 -23 -18 -11 -9 -14 -16 30 54 -21 35 -34 39 53 37 38 47 43 41 42 -31 -19 -26 -20 -36 -22 -3 -50 51 -6 -12 -8 -10 56 57 -43 -27 61 -33 -48
right_child=1 3 4 14 5 7 32 15 18 17 16 12 13 -15 28 20 19 21 45 31 36 22 -24 -25 44 58 -28 -29 -30 40 -32 60 33 -35 46 -37 -38 -39 -40 -41 -42 55 -44 -45 -46 -47 59 -49 49 -51 -52 -53 -54 -55 -56 -57 -58 -59 -60 -61 -62 -63
leaf_value=-0.06542910787482091 -0.06652075090085488 -0.068700144781688552 -0.066337550392484942 -0.062083356108334847 -0.066957251198256837 -0.067413489274014818 0.060400303735455123 0.051235381760555677 -0.061764904372686058 -0.074840732899965817 -0.069145898606818967 -0.068037988117548936 -0.041581078676399937 -0.066106647979249214 -0.067844655033488674 -0.069539039736803795 -0.068895143235649811 -0.079777640621732371 0.052553620783721881 -0.00739880195527607 -0.059136434634847579 -0.073114522748789518 0.048610386171018288 0.034065764617443928 -0.035500334585271083 -0.019196024787015716 -0.054924530656463383 0.043899644930412478 0.034939712657475058 -0.064830762600368186 0.039938020340388548 0.056093457863335805 0.023776905879387911 0.061438964248929244 0.034858977914736043 0.066206385355292066 0.050097830303146323 0.047773490643013956 0.046033918273758662 0.038628786923970648 0.052610427730286236 0.018686154083114057 0.031495651043451242 0.021347099880750529 0.038825595268637415 0.058096733654465729 0.028660543137199148 0.010771973240552658 0.041819529333984556 -0.057358239180090989 -0.067911708820816596 0.052209367613996617 0.03531418709605072 0.044302667609103119 0.012116276644972689 0.047964326821405855 0.042210972244180522 -0.058030965687544012 0.05649746668033221 0.055189803603908495 0.018948779233324897 0.049587088266936211
leaf_weight=196.31813092972152 2.7956932240631422 1.2312893393918773 5.5567799028885929 1.8249880194707651 0.23325929045677307 0.74237472015374617 28.159149215141955 0.1392925273394211 0.26793948779959353 0.25025053844729228 0.36846523779968254 1.7001243520644491 0.19714296378515483 0.66815532593682281 0.14263003634914617 0.1466119428660021 0.30716430122265626 0.14678848239419184 36.480429290346365 0.38317992987504146 0.393150686810259 0.39356214539657131 1.0555846292008935 0.32777056247869041 0.20670386566052912 0.17252963767168694 0.72114744948339649 1.9208834369273973 0.91708961953918333 0.24432076638913436 0.76126801682403311 2.0595640738320076 1.9028849100868672 4.6760731348767877 2.3570792315294993 58.109074135169067 4.4967723064037273 0.98574722028570239 0.46622342127375305 0.71901241823798046 8.1138458527930197 0.25215380123699993 0.36604045156855136 0.16740839672274888 0.47237476301961578 65.00787959885929 1.561035260863721 0.20456794102210552 0.11932836985215534 0.17641697291037417 1.6331299161975037 0.13731625699438155 0.066110732150264084 2.555927437322679 0.18962426518555731 3.8654204620834207 0.79769568592018913 0.18097958598809782 0.22555973607813939 19.758731916834222 0.46052253557718348 4.6574036944948602
leaf_count=67507 920 571 2499 892 111 343 212 9 103 89 170 745 56 318 70 51 143 41 771 76 121 156 60 36 53 36 289 129 97 134 55 81 28 36 62 161 149 38 23 38 163 16 13 7 39 613 83 24 9 68 729 9 5 31 27 65 39 41 10 393 50 110
internal_value=0.0006718 0.0530982 -0.0610934 0.0544228 -0.0192512 0.005895 0.0554162 0.0217064 0.050831 0.0396021 -0.000273844 -0.0450396 -0.0186599 0.0114706 -0.0315232 0.0304653 0.020378 0.0469408 0.0544585 0.028605 0.0392334 0.0482165 0.0189671 -0.0244122 -0.0103017 -0.0143401 -0.0377388 0.0359432 0.0211057 0.0433529 0.0132519 0.0418216 0.0628259 0.0505457 0.0499863 0.0637355 0.0416694 0.0231785 0.00039115 0.0190066 0.0460075 0.0366193 -0.00706273 -0.025897 0.0162016 0.0561042 0.051116 -0.0352104 -0.0587534 -0.0173416 -0.0595686 -0.0228002 -0.0532547 0.0590608 -0.031147 0.041851 0.0226521 -0.0133692 0.0236923 0.0525911 0.0493056 0.0443338
internal_weight=471.916 255.255 216.661 252.459 20.3427 10.2996 249.575 8.29589 154.171 37.6438 5.85112 10.0431 4.48631 2.78618 2.88471 7.55351 4.32409 31.7927 116.528 3.88951 6.69307 31.1444 1.77692 0.721333 0.986243 0.64834 0.86044 2.11803 1.05972 15.0393 1.21883 2.90327 95.4031 6.57896 29.3675 88.8242 6.54646 2.04969 1.06394 1.03321 13.8205 5.70661 0.610361 0.314197 0.679079 101.488 28.3343 0.597719 1.52703 0.295745 2.00371 0.370576 0.434576 30.7151 0.457564 5.09625 1.23083 0.433133 0.398089 25.9772 2.52009 6.21844
internal_count=80023 6873 73150 5953 5643 1896 4894 1047 4426 2386 1265 3747 1248 503 1059 704 617 1121 2040 442 406 986 252 192 235 135 298 185 167 656 185 207 468 64 734 404 355 206 168 86 471 308 147 48 92 1384 648 145 648 77 849 120 175 243 130 161 96 57 46 586 131 193
is_linear=0
shrinkage=0.05


Tree=9
num_leaves=63
num_cat=0
split_feature=4 25 21 7 14 15 21 3 14 12 14 18 17 14 28 12 1 1 14 12 17 7 16 17 17 12 14 6 17 15 6 17 21 6 7 15 22 22 7 15 7 14 17 15 14 21 22 21 14 16 14 23 14 7 15 1 1 15 1 16 1 7
split_gain=204.736 90.6751 41.4968 21.9711 18.6255 14.7319 14.2842 11.3319 9.45212 8.99288 10.5792 8.10552 6.71706 6.57597 6.40039 5.01243 4.60113 3.50287 2.70396 2.69197 2.68759 2.42095 2.32332 2.19291 2.17291 2.15431 2.15138 2.21415 2.04542 1.78919 1.69134 1.62048 2.51923 3.0656 5.28097 1.61513 1.50461 1.48036 1.46081 1.40421 1.35924 1.25683 1.25606 1.21122 1.16945 1.1678 1.12462 1.10466 1.10379 1.05769 0.981555 0.967728 0.923513 0.881734 0.788303 0.759024 0.841017 0.756686 0.730572 0.707976 0.70673 0.663263
threshold=0.38725000000000004 0.65000000000000013 134.50000000000003 33.500000000000007 0.78500000000000014 0.88500000000000012 134.50000000000003 0.79283333333333339 0.48500000000000004 0.75000000000000011 0.45500000000000007 0.49950000000000006 1.0000000180025095e-35 0.49500000000000005 1.0000000180025095e-35 0.75000000000000011 0.099689440993788833 1.0000000180025095e-35 0.51500000000000012 0.75000000000000011 1.0000000180025095e-35 14.500000000000002 0.76500000000000012 1.0000000180025095e-35 1.0000000180025095e-35 0.75000000000000011 0.70500000000000007 8.1500000000000004 1.0000000180025095e-35 0.53500000000000014 9.5500000000000025 1.0000000180025095e-35 95.500000000000014 7.9500000000000011 36.500000000000007 0.49500000000000005 0.43055555555555564 0.46388888888888896 17.500000000000004 0.6150000000000001 6.5000000000000009 0.24500000000000002 1.0000000180025095e-35 0.69500000000000006 0.39500000000000007 92.500000000000014 0.45833333333333343 83.500000000000014 0.59500000000000008 0.35500000000000004 0.23500000000000001 0.72500000000000009 0.35500000000000004 47.500000000000007 0.45500000000000007 0.18776709401709404 0.1471728226174191 0.72500000000000009 0.32056175376786072 0.33500000000000008 0.24253565062388596 20.500000000000004
decision_type=2 2 2 2 2 2 2 2 2 2 2 2 2 2 2 2 2 2 2 2 2 2 2 2 2 2 2 2 2 2 2 2 2 2 2 2 2 2 2 2 2 2 2 2 2 2 2 2 2 2 2 2 2 2 2 2 2 2 2 2 2 2
left_child=1 4 3 8 5 7 9 11 19 10 24 14 13 15 22 -5 -10 -12 -16 28 39 -13 31 29 -3 30 27 55 -2 -19 43 -1 33 34 -33 -36 -31 -6 44 61 -9 -26 51 -15 -7 -43 -41 50 53 -38 -30 -20 -29 -37 -22 56 -14 -17 -52 -48 -46 -18
right_child=2 6 -4 12 37 38 -8 40 16 -11 17 21 26 25 18 57 20 23 42 -21 54 -23 -24 -25 41 -27 -28 52 47 36 -32 32 -34 -35 35 48 49 -39 -40 46 -42 45 -44 -45 60 -47 59 -49 -50 -51 58 -53 -54 -55 -56 -57 -58 -59 -60 -61 -62 -63
leaf_value=-0.063008199585865815 -0.063876458323511506 -0.063940222444786185 -0.060540522087180706 -0.061567903987940299 -0.024736801726117565 -0.051442382000324319 -0.05830769618522659 -0.021485311566551531 -0.064389930361469713 0.054377436989493377 -0.063810870932462391 -0.030858277916774465 -0.065257958813683056 0.0021582220566758229 -0.050284524269048586 -0.022683438467174865 -0.052166065487729896 -0.048167731379535728 -0.058883793051892452 0.04122973114277733 -0.023836166791935211 0.043811099293714101 0.024123797993865829 0.040167689101062221 -0.06436414373308498 0.054304943272538278 0.06109511950168376 -0.056520930612657463 -0.063357829150805151 -0.05473723922002921 -0.063767203333275832 -0.049186578318730363 -0.061858480453389014 -0.062767421259698933 -0.059970856215302931 -0.063991994394821949 -0.054524635740877708 0.041431333355862798 0.047623462081869065 -0.04657563032520913 0.043198918878030651 0.01147612065825887 0.030395206621451582 0.039145265655101735 -0.065028017440022956 -0.066716272181253963 -0.067872198299817041 -0.055320583850227124 0.043435492280929813 0.027878700302150346 -0.0653273855818544 0.014306363644776783 0.017897365426250717 0.013131661523638755 0.041320250301741551 0.050762173693757441 0.043516194837310541 0.04141542793941369 0.016847236159452206 0.026922612468643553 0.025273352034940119 0.0050108703786732808
leaf_weight=103.17167822226475 4.7076747558221506 3.7695975622918905 10.368272503594197 3.1409438500704736 0.98038025907226156 0.82215937944420092 5.2387927035524617 1.0834868814563368 1.4136667745187903 20.842624333090498 1.0233296768274183 1.9001966053474451 0.29710769659140979 3.0732152789641969 2.9231837477764193 0.57008534499618724 1.2946833655005341 1.1017942470352888 0.90401267982088007 1.1315313030536351 0.47726339334622281 2.5319692315824796 0.83861524176609137 19.752787443205307 0.95333996496628959 13.078446956606058 67.631740864879248 0.54000594033277538 0.56492595051531713 0.6458476659936413 0.51670688693411726 9.236742120265264 30.670481136301532 9.2696813987568003 0.67217019316740234 0.48294214135967228 0.40750846388982509 6.1347455164213898 3.175986963462492 0.63000108134292521 3.2431457784405211 3.2193620062425912 3.0178055445867358 7.9115848570654634 0.23858676862437311 0.5606651275884359 0.20395302408724081 1.4063424237101569 2.7639974135381635 8.7682634331722493 0.300912972306833 0.90253076853696257 1.8285841687466016 1.5931040245341135 16.979056263400707 62.671443710274616 0.44216392328962684 2.3934811588405864 2.6739651090465486 5.7486614208319224 2.3590371734971995 0.8338908357254694
leaf_count=35922 1838 1484 3944 1225 246 286 2040 262 482 418 347 505 99 449 1010 128 430 347 289 65 108 97 90 1017 388 264 546 178 231 248 192 2819 10582 3201 222 168 115 279 126 199 162 411 238 437 82 204 71 480 129 744 106 126 207 190 819 1386 11 118 340 498 245 133
internal_value=0.000809075 -0.0293908 0.0370212 0.0420174 -0.0470448 -0.0501507 0.0209249 -0.0529122 0.00795335 0.0277246 0.0139066 -0.0549356 0.0499818 0.0288883 -0.0567126 -0.0175585 0.0234725 0.0271906 -0.0123373 -0.0317336 0.0282192 0.0117982 -0.058879 0.0302263 -0.0356169 0.0404236 0.0548333 0.0483951 -0.0402857 0.0122494 0.0246389 -0.0593199 -0.0523619 -0.0402353 -0.0260739 0.0126556 0.0190271 0.0323141 0.0232063 0.00553581 0.0270005 -0.0130606 0.0106558 0.0287974 0.000529892 -0.000121613 0.0169512 -0.0178323 0.0227418 0.0242191 -0.00293842 -0.0223187 0.000931018 -0.0048093 0.0395388 0.050168 -0.000199318 0.0290851 0.00853516 0.0236747 0.0169793 -0.0297664
internal_weight=468.031 255.201 212.83 202.462 188.917 181.802 66.2839 175.206 38.3665 61.0451 40.2025 170.879 164.096 30.6845 166.447 6.10451 27.5812 31.6995 7.74753 10.7854 26.1675 4.43217 158.699 30.6762 8.50296 24.58 133.411 65.7793 9.65382 10.9234 11.5015 157.861 54.6891 24.0186 14.749 5.51221 9.82162 7.11513 6.59577 8.71119 4.32663 4.73337 4.82435 10.9848 3.41978 3.78003 6.58262 4.94615 4.84004 9.17577 3.5398 1.80654 2.36859 2.07605 17.4563 63.4107 0.739272 2.96357 2.97488 5.95261 2.59762 2.12857
internal_count=80023 65039 14984 11040 57276 56751 7763 56012 5800 5723 5305 55588 5240 2813 54986 1471 2740 2818 1663 3060 2258 602 53323 2471 2487 1342 2427 1881 2995 1454 1078 53233 17311 6729 3528 709 1107 525 739 1331 424 1003 653 886 613 615 768 1157 487 859 677 415 385 358 927 1496 110 246 446 569 327 563
is_linear=0
shrinkage=0.05


Tree=10
num_leaves=63
num_cat=0
split_feature=0 24 0 21 17 14 14 17 14 28 14 21 7 15 2 28 8 0 15 15 14 3 2 4 14 28 7 11 15 7 22 14 14 7 15 4 17 22 2 15 15 16 7 14 2 2 16 2 21 14 21 15 7 18 15 16 7 15 16 15 17 15
split_gain=527.72 13.6088 13.3817 7.76863 4.13901 3.35247 3.15663 2.74443 2.81033 2.0643 1.99028 1.60071 1.55768 1.47365 1.47153 1.33076 1.3709 1.0658 1.06203 0.9561 0.781308 0.638801 0.808446 0.893891 0.62152 1.25502 0.561598 0.54113 0.485184 0.465055 0.803241 0.463873 0.453604 0.528805 0.448221 0.437023 0.432841 0.517701 0.56879 0.680844 0.422607 0.385452 0.36823 0.363544 0.331563 0.464513 0.316841 0.571203 0.285728 0.268971 0.268741 0.287273 0.337144 0.263707 0.258917 0.292767 0.278801 0.404885 0.234461 0.233623 0.219027 0.391492
threshold=0.60000000000000009 1.0000000180025095e-35 0.27500000000000008 134.50000000000003 1.0000000180025095e-35 0.6150000000000001 0.6150000000000001 1.0000000180025095e-35 0.26500000000000007 1.0000000180025095e-35 0.75500000000000012 100.50000000000001 31.500000000000004 0.69500000000000006 0.45700000000000007 1.0000000180025095e-35 1.0000000180025095e-35 0.87500000000000011 0.72500000000000009 0.51500000000000012 0.35500000000000004 2.144833333333334 1.146166666666667 0.69710000000000016 0.23500000000000001 1.0000000180025095e-35 18.500000000000004 0.82575757575757591 0.96500000000000008 37.500000000000007 0.45833333333333343 0.51500000000000012 0.49500000000000005 26.500000000000004 0.80500000000000016 0.64716666666666678 1.0000000180025095e-35 0.44722222222222224 0.41016666666666673 0.88500000000000012 0.7350000000000001 0.82500000000000007 82.500000000000014 0.49500000000000005 0.17750000000000002 1.5645000000000004 0.59500000000000008 0.74916666666666676 61.500000000000007 0.38500000000000006 57.500000000000007 0.66500000000000015 23.500000000000004 0.66350000000000009 0.69500000000000006 0.50500000000000012 13.500000000000002 0.6150000000000001 0.57500000000000007 0.51500000000000012 1.0000000180025095e-35 0.90500000000000014
decision_type=2 2 2 2 2 2 2 2 2 2 2 2 2 2 2 2 2 2 2 2 2 2 2 2 2 2 2 2 2 2 2 2 2 2 2 2 2 2 2 2 2 2 2 2 2 2 2 2 2 2 2 2 2 2 2 2 2 2 2 2 2 2
left_child=2 -2 -1 6 15 9 7 8 42 -6 -5 19 -11 14 26 -4 -17 36 -18 -7 -14 48 -23 -24 25 -9 -10 35 -13 30 -15 41 33 -32 44 -21 37 38 39 -8 -22 -28 -3 49 50 59 47 53 -19 -16 -26 52 -52 -20 55 56 57 -39 -54 -46 61 -12
right_child=1 3 4 10 5 11 17 24 13 12 60 28 20 29 43 16 18 21 46 27 40 22 23 -25 34 -27 31 -29 -30 -31 32 -33 -34 -35 -36 -37 -38 54 -40 -41 -42 -43 -44 -45 45 -47 -48 -49 -50 -51 51 -53 58 -55 -56 -57 -58 -59 -60 -61 -62 -63
leaf_value=-0.062408187905173988 -0.063458707019306726 -0.059346417513598308 -0.062716367964542663 -0.062435263070140391 -0.063487671295559531 -0.057102493102441781 -0.06788719114958984 -0.060359340330853439 -0.068242810053311898 -0.063928136729798316 -0.066681831487095708 -0.051472770116980329 -0.06450818214442039 -0.067906452998374153 0.023112154471091315 -0.057662126659143775 -0.053971173955386177 0.06419479420637518 -0.056346557359512765 -0.065551271019199164 -0.012120638261390464 0.061810546028860242 -0.00048065916252655025 0.051759782722496553 0.046897524536866741 0.038815682445844574 -0.057820749639212611 0.046247299204359771 0.048132925212796607 0.047339538164218098 -0.063834557300331066 0.01330190975537616 0.04108784862588076 0.031374757552775683 0.054441470920663593 0.040545044285997998 0.054642659087832814 -0.074537409129006693 0.047032818697041651 0.033697835214557756 0.048326780553986093 0.062429309850146622 0.020927936089566123 0.047950770083317384 0.038212394407582256 0.030671891726654757 0.044597701055520605 0.043344984552289217 0.055580594868133319 -0.063904010786665896 -0.012915249943223087 0.041912036913633356 0.017157160682442326 0.038168877847411027 0.052292045873956389 0.053212889616514193 0.036542772388951948 0.030327245430739641 0.050450399886738821 0.052904298198788641 0.047393564782451686 0.048986794833377111
leaf_weight=190.47982236859389 2.631203463766723 1.0213088087730309 4.7837193898521946 1.8523547647200751 2.3505855064286152 0.25918942352291185 0.32690283312695345 0.37323276377719539 0.52454176117316764 0.68187825515633482 0.1388268751616123 0.7612377327386638 0.22112973513139866 0.21698932419530992 0.27169476187555108 1.7121308171554117 0.63197953779308624 49.070823755580932 0.36665054509649031 0.20441303076950124 0.36818038742057968 4.1033535394817582 1.4699549442157152 1.8487255735017241 5.9594318917370384 2.195200296031544 0.52889765007421352 4.5562330395914614 0.14565044105984271 8.1033071228084719 0.24514570993233098 0.95336485328152776 2.4803516943647992 0.36002081158949295 27.257276660733623 0.18481669455650263 59.664627984639083 0.14351270061161159 0.74916288318490842 0.33291551723959856 1.3470337565522639 0.07624798349570483 0.16609067254466925 1.5480260029071358 3.0595363042230082 3.0741277036722741 0.80895202950341627 0.42044497799361125 11.975688291713594 0.13192969609372085 0.598988119811111 3.4098927674058359 1.4594721528701486 0.092397779691964388 14.65385707819223 2.8119781358691398 3.9024764493115072 0.25668112630955875 0.82928077958058555 23.404932270874269 0.57250915227632504 0.15463632927276194
leaf_count=67487 887 446 2189 957 1067 85 137 205 210 302 56 320 103 87 43 734 229 125 111 90 68 17 24 23 168 98 198 241 3 303 123 76 81 38 379 15 677 43 38 26 40 3 23 51 65 39 31 19 60 64 75 102 72 3 270 74 155 14 29 257 55 9
internal_value=-0.000251588 0.0496398 -0.0583326 0.0508681 -0.0193149 0.00102711 0.0518218 0.0443064 0.0260067 -0.0294746 -0.0331826 0.0258257 0.00106154 0.031707 0.00573571 -0.0448809 -0.0237232 0.0562051 0.00131878 0.0365071 0.0239475 0.0608209 0.0469701 0.0286207 0.0485549 0.024404 -0.0234923 0.0414132 -0.0354756 0.0408941 0.0250792 -0.00843086 0.0316184 -0.0071934 0.0494532 -0.0151739 0.0523901 0.0465913 0.017219 -0.0166318 0.0353514 -0.0426693 -0.0481178 0.0369316 0.0462001 0.0490688 0.0220136 0.00124095 0.0625049 -0.00533017 0.0392867 0.0320847 0.0204803 -0.0373224 0.0484925 0.0406665 0.032467 -0.00727806 0.0292203 0.0512058 0.0293903 -0.00573187
internal_weight=455.286 244.909 210.376 242.278 19.8966 11.0803 239.56 88.2493 16.6279 4.96881 2.71833 6.11154 2.61822 15.4405 4.0347 8.81628 4.03256 151.311 2.32042 5.20465 1.93634 68.4685 7.42203 3.31868 71.6214 2.56843 2.08305 4.94546 0.906888 11.4058 3.30251 1.55851 3.08552 0.605167 69.0529 0.38923 82.8421 23.1775 1.40898 0.659818 1.71521 0.605146 1.1874 1.95165 41.7957 29.5386 1.68845 0.879493 61.0465 0.403624 12.2571 6.29763 2.88774 0.459048 21.7685 7.11465 4.30267 0.400194 2.28875 26.4645 0.865972 0.293463
internal_count=80019 6882 73137 5995 5650 2334 4918 3235 1746 1580 1077 754 513 1277 645 3316 1127 1683 393 431 211 249 64 47 1489 303 487 346 323 632 329 277 242 161 1186 105 1434 757 201 163 108 201 469 158 807 361 164 133 185 107 446 278 176 114 556 286 212 57 101 322 120 65
is_linear=0
shrinkage=0.05


Tree=11
num_leaves=63
num_cat=0
split_feature=0 12 1 22 0 14 0 14 22 14 14 12 7 15 0 11 15 12 2 14 22 15 15 14 1 3 18 7 14 14 2 14 22 15 22 2 2 22 22 22 15 19 14 22 14 2 28 15 24 3 15 15 1 14 22 2 22 15 3 16 13 19
split_gain=494.339 12.7357 12.6251 6.84687 4.67887 3.37481 2.61796 3.3658 3.77601 2.10094 2.07246 2.88244 1.39189 1.3333 1.26426 1.17923 0.870436 0.760873 0.83589 0.679033 0.887719 0.664049 0.573808 0.512202 0.511336 0.435349 0.680674 0.595907 0.355497 0.387707 0.34569 0.341247 0.367207 0.475543 0.331584 0.303071 0.285513 0.284636 0.251709 0.232057 0.268185 0.350051 0.217021 0.349422 0.208253 0.20721 0.436318 0.203184 0.239251 0.202399 0.198318 0.196218 0.193393 0.181692 0.179869 0.162369 0.15829 0.175929 0.165545 0.14806 0.165142 0.184375
threshold=0.60000000000000009 0.75000000000000011 1.0000000180025095e-35 0.25277777777777782 0.27500000000000008 0.62500000000000011 0.27500000000000008 0.6150000000000001 0.64722222222222225 0.75500000000000012 0.23500000000000001 0.75000000000000011 12.500000000000002 0.65500000000000014 0.87500000000000011 0.82575757575757591 0.75500000000000012 0.75000000000000011 0.16283333333333336 0.44500000000000006 0.48611111111111116 0.51500000000000012 0.6150000000000001 0.46500000000000002 0.23590205639177445 2.144833333333334 0.69550000000000012 49.500000000000007 0.36500000000000005 0.35500000000000004 0.089333333333333334 0.38500000000000006 0.69166666666666676 0.81500000000000006 0.71388888888888902 0.9903333333333334 0.17983333333333337 0.62500000000000011 0.86388888888888904 0.61944444444444458 0.75500000000000012 0.53250000000000008 0.39500000000000007 0.75833333333333341 0.76500000000000012 1.315666666666667 1.0000000180025095e-35 0.63500000000000012 0.45000000000000001 0.91150000000000009 0.57500000000000007 0.65500000000000014 0.70479059093516938 0.30500000000000005 0.56388888888888899 0.6701666666666668 0.5805555555555556 0.55500000000000016 0.13083333333333338 0.53500000000000014 1.0000000180025095e-35 0.44850000000000007
decision_type=2 2 2 2 2 2 2 2 2 2 2 2 2 2 2 2 2 2 2 2 2 2 2 2 2 2 2 2 2 2 2 2 2 2 2 2 2 2 2 2 2 2 2 2 2 2 2 2 2 2 2 2 2 2 2 2 2 2 2 2 2 2
left_child=1 6 -2 9 -3 10 -1 -8 -9 -4 11 -5 16 -6 30 -10 23 18 19 20 -14 -17 53 38 -23 34 27 -27 29 -15 56 32 33 35 44 52 47 50 49 40 41 -21 43 -18 -16 -19 -47 48 -26 -12 -25 -11 -20 -22 -24 -36 57 58 -7 60 61 -56
right_child=2 4 3 5 13 14 7 8 15 51 12 -13 17 28 25 21 42 45 31 39 22 24 54 37 36 26 -28 -29 -30 -31 -32 -33 -34 -35 55 -37 -38 -39 -40 -41 -42 -43 -44 -45 -46 46 -48 -49 -50 -51 -52 -53 -54 -55 59 -57 -58 -59 -60 -61 -62 -63
leaf_value=-0.061034948918459266 -0.061985724330176621 -0.064719211343497493 -0.060775398205455369 -0.060175489946271365 -0.063636909155905988 -0.0090299716793555539 -0.061299835475840253 -0.061772728835702097 -0.058437384210665778 -0.021621661045175222 -0.056831610240503698 0.0382954738875819 -0.066223695869882956 -0.065769558376433682 0.060859534545515237 -0.065626807443353127 -0.031748657016599034 0.05231813794569995 0.010557031616887636 -0.037956189256211477 0.00044659988009622799 -0.06502641362072531 -0.0087028305066952152 -0.040722724706983224 0.047322803030140796 0.056783197688636891 0.063233882320142418 0.013592233824019967 0.04387998803301596 0.030691175842125065 0.053113343208100128 0.048988389818234238 0.045689805682046884 0.045004405882264675 0.058773930397573504 0.041905643778148788 0.048022164891272895 0.029653826993377472 0.0097016534899460934 0.043319631627539476 0.038513015356014445 0.022844313311962298 0.043813832545062881 0.043876195786149354 0.049604858810132157 0.055284059175982225 0.024443622233859989 0.026007537254120368 -0.067638228161296055 0.031294058102243026 0.0099687705462722515 0.040878888546332329 -0.033871104966793956 -0.0611283102122894 0.037932028507751597 0.06530353207018845 0.048677924869287216 0.043320565996235939 0.034511212847742133 0.049332293426883361 0.038877924753126077 -0.028473495671236429
leaf_weight=185.30807693535462 2.5774703733623019 1.6038623920176167 1.8052075802552274 1.1543216436766663 0.33469862626952807 0.31181628780905313 7.6208213597674312 2.4306610353269207 0.46134122890362039 0.14891937216452777 0.53972290724777794 2.0864232203784923 0.33845060842577313 0.15785584247350914 7.9398079796228584 0.18595132755581323 0.2657863574495426 33.544082852138672 0.44893605029210737 0.28764329582918291 0.241274286177941 0.13230365549679879 0.26420747884549234 0.28267254168167744 0.068883604835719203 1.3621299713850015 3.45380131714046 1.9303646997141184 4.4272953355539357 0.30629668850451708 49.707172677903145 21.451230468745052 3.5111268796899822 1.0704407192824872 13.660552285611628 0.32612887801951729 1.8831330898246958 1.4798971429845549 0.2997868504098733 5.9158271659034654 2.3443219478067476 1.3375201166491022 3.3419966657675104 0.35912710220145527 8.5216312850825471 2.4789045033685388 2.1342073107371107 1.2384822781459659 0.1319524811260635 0.074099654797464609 0.6078314990591025 0.80116375130455708 0.53905768435652135 0.23796005104668438 0.17616774199996166 31.416122330119833 21.758619734820968 7.9721004648308735 0.72789933077001479 0.96245095874473907 0.61174694969668053 0.2570423890138045
leaf_count=67006 887 481 957 611 155 39 3572 1138 184 51 185 57 139 67 37 73 75 438 31 40 37 42 31 59 4 4 19 39 125 11 608 410 103 43 41 10 91 81 47 177 82 78 135 27 39 30 37 137 51 9 53 69 57 69 10 67 429 248 42 49 50 46
internal_value=-0.000227398 -0.0571529 0.0480858 0.0492655 0.00998363 0.0501738 -0.0594519 -0.0387248 -0.0123897 -0.0291009 0.0424706 0.00322108 0.0439543 0.0329093 0.0547809 0.0168722 0.0229945 0.0458908 0.0411015 0.0306499 0.0101886 0.0264152 0.01959 0.00395454 0.0313694 0.0597849 0.0477271 0.0314607 0.0395155 -0.00211461 0.050535 0.0460603 0.0354063 0.0202646 0.0611068 0.000112313 0.035208 0.0162136 -0.0278522 0.0370444 0.0276922 0.012083 0.0387567 0.0117117 0.0550333 0.0509517 0.0410161 0.0184425 -0.0282084 -0.0461932 -0.00612222 0.0310823 -0.0136833 -0.0301279 0.0300788 0.0633247 0.04637 0.0407976 0.021453 0.0351831 0.0221511 -0.00146925
internal_weight=449.357 206.292 243.065 240.488 6.83001 237.732 199.462 14.1535 6.53271 2.75529 88.9704 3.24074 85.7296 5.22615 148.762 4.10205 7.25092 78.4787 40.3215 12.9746 3.0893 3.64071 2.75085 3.28401 3.45476 68.2844 6.7463 3.29249 4.89145 0.464153 80.4776 27.3469 5.89569 2.38456 61.5381 1.31412 3.32245 2.3704 0.913609 9.88531 3.96949 1.62516 3.96691 0.624913 16.4614 38.1572 4.61311 1.43932 0.200836 0.613823 0.890504 0.950083 0.987994 0.479234 2.27162 45.0767 30.7704 9.01182 1.03972 2.00741 1.04496 0.43321
internal_count=80019 73137 6882 5995 839 4918 72298 5292 1720 1077 3306 668 2638 358 1612 582 671 1967 1462 808 431 398 292 434 325 246 62 43 203 78 1366 654 244 141 184 98 283 193 241 377 200 118 237 102 76 505 67 192 55 194 112 120 88 106 186 108 758 329 81 155 106 56
is_linear=0
shrinkage=0.05


Tree=12
num_leaves=63
num_cat=0
split_feature=0 12 1 21 0 0 0 14 21 14 12 14 14 12 2 11 14 14 21 14 14 1 2 14 28 18 21 14 21 3 2 7 1 21 11 2 16 19 16 1 16 21 7 5 14 19 11 16 6 11 19 19 19 14 6 25 6 3 21 16 21 2
split_gain=465.386 11.8735 11.7707 6.56634 4.24612 3.78828 2.57164 3.1715 3.42611 2.19811 2.62493 1.75923 1.22032 1.3654 1.18609 1.1602 0.985087 0.699469 0.572841 0.545842 0.532991 0.504372 0.45952 0.423254 0.417833 0.615972 0.355843 0.331246 0.325442 0.311726 0.304857 0.288009 0.283032 0.25842 0.258375 0.2533 0.23034 0.229144 0.332474 0.19503 0.194338 0.240797 0.162761 0.321006 0.159338 0.193144 0.157177 0.156889 0.155331 0.145866 0.192305 0.135595 0.293567 0.133408 0.132331 0.184485 0.25512 0.129108 0.151802 0.123124 0.219555 0.181892
threshold=0.60000000000000009 0.75000000000000011 1.0000000180025095e-35 134.50000000000003 0.27500000000000008 0.87500000000000011 0.27500000000000008 0.62500000000000011 63.500000000000007 0.23500000000000001 0.75000000000000011 0.75500000000000012 0.59500000000000008 0.75000000000000011 0.14350000000000004 0.82575757575757591 0.32500000000000007 0.70500000000000007 70.500000000000014 0.36500000000000005 0.43500000000000005 0.23590205639177445 0.18616666666666667 0.35500000000000004 1.0000000180025095e-35 0.22950000000000001 9.5000000000000018 0.38500000000000006 101.50000000000001 1.0798333333333336 0.17983333333333337 53.500000000000007 0.49354811854811859 43.500000000000007 0.82575757575757591 0.093833333333333338 0.46500000000000002 0.50350000000000017 0.62500000000000011 0.46485050654806032 0.51500000000000012 98.500000000000014 52.500000000000007 1.0000000180025095e-35 0.74500000000000011 0.68450000000000022 0.58571428571428574 0.49500000000000005 5.2500000000000009 0.85164835164835173 0.78250000000000008 0.35550000000000009 0.74450000000000016 0.67500000000000016 5.9500000000000011 0.65000000000000013 3.5500000000000003 1.1296666666666668 34.500000000000007 0.47500000000000003 73.500000000000014 0.38366666666666677
decision_type=2 2 2 2 2 2 2 2 2 2 2 2 2 2 2 2 2 2 2 2 2 2 2 2 2 2 2 2 2 2 2 2 2 2 2 2 2 2 2 2 2 2 2 2 2 2 2 2 2 2 2 2 2 2 2 2 2 2 2 2 2 2
left_child=1 6 -2 5 -3 9 -1 -8 15 10 -4 -5 13 14 16 -9 26 24 34 23 29 -17 40 -6 49 -26 -11 28 36 35 42 -30 39 57 -18 -20 -16 38 -22 -28 41 46 43 -23 -35 -46 -14 54 -39 -7 -51 -45 -53 -43 55 56 -24 -19 -59 60 -29 -62
right_child=2 4 3 11 19 17 7 8 -10 12 -12 -13 22 -15 27 21 18 33 20 -21 37 30 47 -25 25 -27 32 59 31 -31 -32 -33 -34 44 -36 -37 -38 48 -40 -41 -42 53 -44 51 45 -47 -48 -49 -50 50 -52 52 -54 -55 -56 -57 -58 58 -60 -61 61 -63
leaf_value=-0.05987718652747423 -0.060714896314769062 -0.063117467386887324 -0.058579001223602128 -0.059153642245501029 -0.062037011740519489 0.049798868100569209 -0.059155175808608809 -0.063351196878942292 -0.06015726654714864 0.047029580499811464 0.036758177588771548 0.026322940958921504 0.024609010437459448 0.04849500225421411 0.0062615149891606424 -0.062363701486848361 0.017162973850922469 0.063583567491206625 -0.066591754820375326 0.036653723649549497 -0.019970998869200365 -0.066278916319130632 0.044822273795396564 0.024714142249130492 0.056071378197632527 0.011822471576175041 -0.037940962820202782 0.042258846918912685 -0.0666474776992622 0.037422944094668113 0.043475648277200164 0.019112263074706384 -0.056087199117811563 0.06304466313086747 0.038930160809528852 0.030310254775089696 0.037652034543911292 0.0069937007738700057 0.042034122636829339 0.044449110259027869 0.049254395903174993 0.010234062221193066 0.035784799073847753 0.046278910571829326 0.044378647949509839 0.056684162111853877 0.044394003975288386 0.052867691237514114 0.032440918825278546 0.062632629128466552 0.0459661869501371 -0.032849769359026157 0.03434514411309024 0.034508083401736236 0.052775192624555836 0.049223655801981965 0.013979264806140186 0.052620670157634011 0.064344703257308664 0.046075083635268022 0.038839594600584934 -0.0098186084811926408
leaf_weight=181.48452014196664 2.5201533075887701 1.5600418802350748 1.1288986271283641 1.7625565472044393 0.26146006442831993 16.690844031283639 7.6660950121658953 0.40636475170322262 2.2759648490100517 0.14520663156872504 2.0030586048742407 0.91418124782285293 1.0532738941256017 21.929146507492987 0.69794889731565746 0.15521873079706017 1.8241465520259206 31.981419529765844 0.40827053584507655 4.6162115936167538 0.75883091194555186 0.14789102006761845 1.5626953165046855 0.30417177267372608 1.5211327336728566 1.6285097836516795 0.1416131768237392 2.5569450093025803 0.15917487096157845 0.12667773524299264 1.8602469506004125 0.25431213085539639 0.62617713528743479 4.4860960228834328 5.3960071945402888 0.080782536067999899 3.5922288074798416 0.85297119859023984 0.30232737665937748 0.14575753104873002 12.7258508864179 0.75712283546454218 0.53989526286022727 0.23052283946890384 5.0211029730271539 8.7380800607570546 21.379907849066512 40.50144923357584 2.0194087473792024 6.039564789272843 2.4260349108371884 0.31656426659901626 0.33408865693490952 2.242607207284891 4.14154739134392 3.237617886858061 1.17426378687378 6.7813817569985968 4.6570844724774361 11.719402218786852 0.34704623394645739 0.43007095871143974
leaf_count=67006 887 481 611 957 120 162 3641 176 1092 12 56 120 33 350 52 53 132 59 158 225 86 58 25 13 12 30 48 61 62 6 100 17 213 15 277 6 165 91 15 9 259 63 45 12 26 38 462 455 96 44 32 88 27 134 50 43 36 40 16 320 14 27
internal_value=-6.13491e-05 -0.0560372 0.0467783 0.0479115 0.00920108 0.0487932 -0.0582879 -0.0375868 -0.0112024 0.0438316 0.00239436 -0.029961 0.0447374 0.0388491 0.0323576 0.0167168 0.020519 0.0568679 0.0246747 0.0309732 0.010778 0.0257941 0.0483532 -0.0153861 0.0503609 0.0331927 -0.025677 0.0400442 0.0284622 -0.0324789 0.0297844 -0.0139016 -0.0372336 0.0598548 0.0334308 -0.0505853 0.0325453 0.0175492 -0.00230554 0.00384817 0.04421 0.041686 0.0135514 0.00188671 0.0548616 0.0521935 0.0434651 0.0514765 0.0248842 0.0525104 0.0578564 0.0133272 0.00165259 0.0283814 0.0459066 0.0411454 0.0315894 0.061953 0.057394 0.0436632 0.0351853 0.0119112
internal_weight=443.75 202.159 241.591 239.071 6.74189 236.394 195.417 13.9329 6.26676 146.423 3.13196 2.67674 143.291 54.5145 32.5853 3.99079 12.8282 89.9713 11.7694 5.18184 4.54927 3.58443 88.7763 0.565632 28.3061 3.14964 1.05875 19.7571 4.70366 0.615731 3.42921 0.413487 0.913548 61.6652 7.22015 0.489053 4.29018 3.93354 1.06116 0.287371 38.1588 25.4329 1.56896 1.02907 18.2453 13.7592 22.4332 50.6176 2.87238 25.1564 8.4656 0.881176 0.650653 2.99973 10.1161 5.97458 2.73696 43.4199 11.4385 15.0535 3.33406 0.777117
internal_count=80019 73137 6882 5995 839 4918 72298 5292 1651 4444 667 1077 3777 2217 1867 559 1149 474 867 358 458 383 1560 133 280 42 282 718 296 170 330 79 270 194 409 164 217 288 101 57 951 692 230 185 79 64 495 609 187 238 76 127 115 197 154 104 61 115 56 422 102 41
is_linear=0
shrinkage=0.05


Tree=13
num_leaves=63
num_cat=0
split_feature=0 24 0 21 12 0 14 21 14 12 14 15 15 11 14 2 14 7 14 15 14 12 15 16 22 3 2 12 16 14 14 22 4 2 3 14 14 21 14 2 3 18 21 14 14 15 14 14 21 13 12 16 15 22 3 2 21 7 15 14 13 16
split_gain=438.207 10.9805 10.5995 6.42966 6.22109 3.95978 2.9051 3.09581 2.10083 2.32684 1.32881 1.27428 1.15771 1.0197 0.879426 0.756666 0.690107 0.670317 0.503507 0.486639 0.465256 0.68468 0.541118 0.527607 0.439719 0.391494 0.378844 0.376081 0.384316 0.283022 0.297798 0.278941 0.266963 0.383237 0.949299 0.262268 0.250999 0.315635 0.249215 0.247772 0.243028 0.602585 0.334673 0.287517 0.237385 0.230311 0.22155 0.208337 0.270937 0.321481 0.201532 0.198746 0.322904 0.197277 0.196599 0.182707 0.180942 0.353498 0.165672 0.189674 0.161441 0.160629
threshold=0.60000000000000009 1.0000000180025095e-35 0.27500000000000008 134.50000000000003 0.75000000000000011 0.87500000000000011 0.62500000000000011 63.500000000000007 0.23500000000000001 0.75000000000000011 0.75500000000000012 0.63500000000000012 0.65500000000000014 0.82575757575757591 0.68500000000000016 0.13683333333333336 0.70500000000000007 12.500000000000002 0.46500000000000002 0.58500000000000008 0.59500000000000008 0.75000000000000011 0.75500000000000012 0.57500000000000007 0.66388888888888908 0.79283333333333339 0.65166666666666684 0.75000000000000011 0.41500000000000004 0.36500000000000005 0.35500000000000004 0.62500000000000011 0.69925000000000004 0.98083333333333345 0.95383333333333342 0.49500000000000005 0.58500000000000008 77.500000000000014 0.42500000000000004 0.22150000000000003 2.144833333333334 0.70950000000000013 55.500000000000007 0.76500000000000012 0.62500000000000011 0.74500000000000011 0.43500000000000005 0.32500000000000007 19.500000000000004 0.3000000000000001 0.75000000000000011 0.51500000000000012 0.48500000000000004 0.48611111111111116 0.26383333333333342 0.28950000000000004 93.500000000000014 36.500000000000007 0.80500000000000016 0.55500000000000016 0.3000000000000001 0.43500000000000005
decision_type=2 2 2 2 2 2 2 2 2 2 2 2 2 2 2 2 2 2 2 2 2 2 2 2 2 2 2 2 2 2 2 2 2 2 2 2 2 2 2 2 2 2 2 2 2 2 2 2 2 2 2 2 2 2 2 2 2 2 2 2 2 2
left_child=2 -2 -1 5 6 8 -4 13 9 -3 -5 14 -6 -8 17 20 32 18 39 26 21 22 23 35 25 27 -15 28 -19 30 -14 44 60 -34 -35 -13 37 -27 53 -10 42 -42 -18 -44 -20 54 50 48 -24 -50 56 52 -26 -30 -12 61 -17 -58 59 -31 -7 -21
right_child=1 3 4 10 12 16 7 -9 11 -11 45 15 29 19 -16 46 40 24 31 55 -22 -23 47 -25 51 36 -28 -29 38 58 -32 -33 33 34 -36 -37 -38 -39 -40 -41 41 -43 43 -45 -46 -47 -48 -49 49 -51 -52 -53 -54 -55 -56 -57 57 -59 -60 -61 -62 -63
leaf_value=-0.058890699864652542 -0.059607133639513921 -0.056754119499770328 -0.057706520849487047 -0.057397809828886585 -0.060704985693287764 0.049960586422729873 -0.061099723520550708 -0.058511113475727905 -0.064066204705862828 0.034269644075676051 -0.059420202073456732 -0.038496422626295705 -0.060948924501902403 -0.063400112964271102 0.044109719373514059 0.039440480495848099 0.061806248580712243 -0.036908102681778805 -0.034022775569404244 -0.025158633828523021 0.044752329271051355 0.04724710613055659 0.042157245139622601 0.036392377578402725 -0.001175616945049961 -0.075162058167345683 0.032339186776636115 0.041849197780716274 -0.064172809900965244 0.0039180884201567975 0.026041137801901034 0.028662949950697538 0.0502335985305866 0.055240271937952848 -0.0056401080434030013 0.0045403504799273325 0.020472552714181542 0.00081443848578486829 0.027838371943045864 0.0069623240924485425 0.032110069287228038 0.063762304031320785 0.061447763424386792 0.045159511035012451 0.028814644219997118 0.036710912160713587 0.050514403385317264 0.034337145992152894 -0.063834609319859834 0.062746625302784714 0.049318911152029132 0.046702925211093843 0.036317672326065933 0.0072295433843726402 0.030203401816162392 0.044177764122544608 -0.063767006340953253 0.028241107340743799 0.047541402581750797 0.038465280063113574 0.061122419018632704 0.025025897635088109
leaf_weight=178.79646103247069 2.4593722231220445 1.1028335882656384 7.4808166278853623 1.7212283328844926 0.33987909032293728 18.060388158075519 0.39260219607240321 2.2203848267963622 0.34224948065821381 1.9321743555301509 0.14161297570535669 0.63911963238206071 0.14838498322933436 0.26311896430706871 16.054855405702256 4.4426966329447151 43.408858481096104 0.30434903874993624 0.41162966587580774 0.17801603060797822 23.519088504835963 5.486407186894211 0.2162194374250247 0.78254941481281992 0.63051296095363607 0.21858901204541303 0.17014555283822119 2.5695056355325505 0.12488716561347279 0.58011373598128546 0.2919647847302258 1.3840094891784245 3.929855369955475 1.3054527007043364 1.2567035548854617 0.79352863098029047 0.50596132129430771 0.36489204771351069 2.7985717909687082 0.19146770162842586 2.7737346189096561 3.28386614844203 4.7077051340602321 6.3822942737024277 0.23674095009482699 0.58373066185595235 56.158731171497493 6.2287642422743374 0.20501196294208057 0.0664076964603737 5.5235463225690182 4.2030117863614578 6.4362748614075826 0.42916744982358068 0.1077452358440496 1.396575234015472 0.12524185019719869 0.62713635014370084 2.3868141690618359 1.2607711334057965 3.9476189734414211 1.5288272331381447
leaf_count=67487 887 611 3641 957 155 182 176 1092 134 56 60 148 67 102 392 184 96 48 78 39 518 92 12 53 60 13 13 61 51 30 11 77 34 11 31 55 19 31 140 26 32 16 15 35 15 49 669 316 82 2 76 104 190 42 11 66 52 37 59 36 22 163
internal_value=-2.00968e-05 0.0454982 -0.0551502 0.0465904 -0.0192682 0.0474512 -0.0367776 -0.0113185 0.042356 0.00119426 -0.0323084 0.0432357 0.0283886 0.0153493 0.0352864 0.0460575 0.0557503 0.0285893 0.00463468 0.0238358 0.040417 0.033345 0.0248053 0.00337573 0.0318967 0.0223513 -0.0258027 0.0271895 0.0168891 0.0348755 -0.00327197 0.0159845 0.0493344 0.0404245 0.0253793 -0.0146588 -0.00530005 -0.0276486 0.0217728 -0.0385852 0.0587698 0.049269 0.0598258 0.0520739 -0.0110788 0.0195284 0.0492571 0.0318732 0.000400329 -0.0328642 0.0426699 0.0380932 0.0329724 -0.00886497 -0.0206947 0.0307658 0.0356004 0.0129253 0.0388489 0.0275785 0.0519627 0.0197919
internal_weight=436.561 239.126 197.435 236.667 18.6384 234.113 13.6305 6.14967 145.056 3.03501 2.55432 142.021 5.00793 3.92929 37.2067 104.814 89.0565 21.1518 2.5661 3.53668 37.9371 14.418 8.9316 2.2152 18.5857 7.31592 0.433265 6.22648 3.65698 4.66805 0.44035 2.03238 28.5 6.49201 2.56216 1.43265 1.08944 0.583481 3.35263 0.533717 60.5565 6.0576 54.4989 11.09 0.648371 0.833089 66.8774 6.7164 0.487639 0.27142 10.7186 11.2698 7.06679 0.554055 0.249358 3.10342 5.19507 0.752378 4.2277 1.84088 22.008 1.70684
internal_count=80019 6882 73137 5995 5650 4918 5292 1651 4444 667 1077 3777 358 559 1481 2296 474 1089 330 383 1278 760 668 256 759 405 115 342 281 203 78 170 280 76 42 203 63 44 233 160 194 48 146 50 93 120 1018 412 96 84 349 354 250 93 71 268 273 89 125 66 204 202
is_linear=0
shrinkage=0.05


Tree=14
num_leaves=63
num_cat=0
split_feature=0 1 0 21 0 17 14 17 14 7 28 14 21 7 16 28 28 8 21 14 2 1 14 7 16 14 2 11 16 2 14 14 14 11 21 7 4 19 2 21 21 27 21 14 4 2 2 7 13 20 21 19 22 13 22 2 4 1 28 2 14 2
split_gain=413.42 10.2945 10.218 5.99411 4.29136 3.19195 3.31686 3.14531 2.54572 1.4893 1.39295 1.21975 1.15915 1.0973 1.06157 1.00131 0.937557 0.907913 0.870385 0.853406 0.772637 0.752288 0.640101 0.593004 0.525003 0.514283 0.457939 0.457656 0.434398 0.68451 0.400481 0.375919 0.334542 0.313399 0.299942 0.29872 0.26452 0.248787 0.268679 0.245955 0.23449 0.227927 0.236278 0.224412 0.221407 0.270303 0.220866 0.21773 0.215409 0.214458 0.21312 0.209022 0.20589 0.203035 0.202955 0.199036 0.206502 0.183197 0.18276 0.232559 0.215891 0.180871
